{"ip":0,"fr":60,"v":"5.1.20","assets":[],"layers":[{"ty":4,"nm":"SGAnimation-01","ip":0,"st":0,"ind":1,"hix":1,"ks":{"o":{"a":0,"k":100},"or":{"a":0,"k":[0,0,0]},"a":{"a":0,"k":[68,79.5,0]},"p":{"s":true,"x":{"a":0,"k":68},"y":{"a":0,"k":79.5}},"rx":{"a":0,"k":0},"ry":{"a":0,"k":0},"rz":{"a":0,"k":0},"s":{"a":0,"k":[100,100,100]}},"shapes":[{"ty":"gr","nm":"SGAnimation-01 shape group","it":[{"ty":"sh","ks":{"a":0,"k":{"c":true,"v":[[97.937,106.068],[97.06099999999999,107.78399999999999],[97.937,109.499],[100.038,110.235],[102.139,109.499],[103.015,107.78399999999999],[102.139,106.068],[100.038,105.367]],"i":[[0.5829999999999984,-0.46699999999999875],[0,-0.6779999999999973],[-0.5840000000000032,-0.46699999999999875],[-0.8169999999999931,0],[-0.5829999999999984,0.49099999999999966],[0,0.6770000000000067],[0.5840000000000032,0.46699999999999875],[0.8169999999999931,0]],"o":[[-0.5829999999999984,0.46699999999999875],[0,0.6770000000000067],[0.5829999999999984,0.49099999999999966],[0.8169999999999931,0],[0.5840000000000032,-0.46699999999999875],[0,-0.6779999999999973],[-0.5829999999999984,-0.46699999999999875],[-0.8169999999999931,0]]}}},{"ty":"sh","ks":{"a":0,"k":{"c":true,"v":[[97.062,105.017],[101.684,103.441],[106.306,105.017],[108.232,108.79899999999999],[106.306,112.58],[101.684,114.15599999999999],[97.062,112.58],[95.136,108.79899999999999]],"i":[[-1.2839999999999918,1.051000000000002],[-1.7980000000000018,0],[-1.284000000000006,-1.0499999999999972],[0,-1.4709999999999894],[1.284000000000006,-1.0500000000000114],[1.7980000000000018,0],[1.2830000000000013,1.0509999999999877],[0,1.470000000000013]],"o":[[1.284000000000006,-1.0499999999999972],[1.7980000000000018,0],[1.284000000000006,1.051000000000002],[0,1.4709999999999894],[-1.284000000000006,1.051000000000002],[-1.7980000000000018,0],[-1.284000000000006,-1.0499999999999972],[0,-1.4709999999999894]]}}},{"ty":"st","o":{"a":0,"k":0},"w":{"a":0,"k":0},"c":{"a":0,"k":[0,0,0,0]},"lc":3,"lj":1,"ml":1},{"ty":"fl","o":{"a":0,"k":100},"r":2,"c":{"a":0,"k":[0.00784313725490196,0.34901960784313724,0.26666666666666666,1]}},{"ty":"tr","o":{"a":0,"k":100},"a":{"a":0,"k":[0,0]},"s":{"a":0,"k":[100,100]},"p":{"a":0,"k":[0,0]},"r":{"a":0,"k":0}}]},{"ty":"gr","nm":"SGAnimation-01 shape group","it":[{"ty":"sh","ks":{"a":0,"k":{"c":true,"v":[[109.353,108.8],[107.077,113.422],[101.684,115.348],[96.291,113.422],[94.015,108.8],[96.291,104.17699999999999],[101.684,102.25099999999999],[107.077,104.17699999999999]],"i":[[0,-1.7980000000000018],[1.516999999999996,-1.284000000000006],[2.100999999999999,0],[1.4939999999999998,1.284000000000006],[0,1.796999999999997],[-1.5180000000000007,1.284000000000006],[-2.100999999999999,0],[-1.4939999999999998,-1.284000000000006]],"o":[[0,1.796999999999997],[-1.4939999999999998,1.284000000000006],[-2.100999999999999,0],[-1.5180000000000007,-1.284000000000006],[0,-1.7980000000000018],[1.4939999999999998,-1.284000000000006],[2.100999999999999,0],[1.516999999999996,1.2850000000000108]]}}},{"ty":"sh","ks":{"a":0,"k":{"c":true,"v":[[97.062,105.018],[95.136,108.799],[97.062,112.581],[101.684,114.156],[106.306,112.581],[108.232,108.799],[106.306,105.018],[101.684,103.44200000000001]],"i":[[1.2830000000000013,-1.051000000000002],[0,-1.4699999999999989],[-1.284000000000006,-1.051000000000002],[-1.7980000000000018,0],[-1.284000000000006,1.0499999999999972],[0,1.4699999999999989],[1.284000000000006,1.0500000000000114],[1.7980000000000018,0]],"o":[[-1.284000000000006,1.0499999999999972],[0,1.4710000000000036],[1.284000000000006,1.0499999999999972],[1.7980000000000018,0],[1.284000000000006,-1.051000000000002],[0,-1.4710000000000036],[-1.284000000000006,-1.051000000000002],[-1.7980000000000018,-1.4210854715202004e-14]]}}},{"ty":"st","o":{"a":0,"k":0},"w":{"a":0,"k":0},"c":{"a":0,"k":[0,0,0,0]},"lc":3,"lj":1,"ml":1},{"ty":"fl","o":{"a":0,"k":100},"r":2,"c":{"a":0,"k":[0.23137254901960785,0.7254901960784313,0.5450980392156862,1]}},{"ty":"tr","o":{"a":0,"k":100},"a":{"a":0,"k":[0,0]},"s":{"a":0,"k":[100,100]},"p":{"a":0,"k":[0,0]},"r":{"a":0,"k":0}}]},{"ty":"gr","nm":"SGAnimation-01 shape group","it":[{"ty":"sh","ks":{"a":0,"k":{"c":true,"v":[[135.756,109.832],[135.756,110.51599999999999],[134.531,111.70599999999999],[133.585,112.54599999999999],[133.44500000000002,112.75599999999999],[133.41000000000003,112.75599999999999],[133.41000000000003,112.72099999999999],[132.60500000000002,113.36899999999999],[127.59700000000002,116.71299999999998],[122.02900000000002,119.12899999999998],[109.38800000000002,121.68499999999997],[108.16200000000002,121.72099999999998],[105.25600000000001,121.66799999999998],[105.18600000000002,121.66799999999998],[102.06900000000002,121.43999999999998],[101.57900000000002,121.38799999999998],[96.25600000000003,120.45999999999998],[93.24500000000003,119.51499999999999],[92.70200000000003,119.26899999999999],[86.45100000000002,107.118],[86.88900000000002,103.213],[87.06400000000002,102.51299999999999],[95.94100000000002,95.52699999999999],[105.18600000000002,95.19399999999999],[105.25600000000001,95.19399999999999],[109.38800000000002,94.75599999999999],[127.59700000000002,88.96099999999998],[132.60500000000002,84.56599999999999],[135.75600000000003,78.92799999999998],[135.75600000000003,84.11099999999999],[135.51100000000002,84.11099999999999],[135.30100000000002,84.28599999999999],[134.566,85.72199999999998],[134.355,86.00199999999998],[134.285,86.28099999999998],[134.42499999999998,86.49099999999997],[134.706,86.56199999999997],[134.916,86.42199999999997],[135.126,86.14199999999997],[135.161,86.10699999999997],[135.756,84.95199999999997],[135.756,109.13099999999997],[135.651,109.11399999999998],[135.406,109.21899999999998],[134.636,109.81499999999998],[134.601,109.84999999999998],[134.461,109.98999999999998],[134.425,110.02499999999998],[133.585,110.65399999999998],[133.48000000000002,110.75899999999999],[133.44500000000002,110.79399999999998],[133.37500000000003,110.86499999999998],[133.55000000000004,110.79399999999998],[133.90000000000003,111.14499999999998],[133.79500000000004,111.35499999999998],[133.37500000000006,110.86499999999998],[133.34000000000006,110.82899999999998],[133.20000000000007,111.14499999999998],[133.48000000000008,111.45999999999998],[133.62000000000006,111.45999999999998],[133.65500000000006,111.45999999999998],[133.86500000000007,111.35499999999998],[134.04000000000008,111.17999999999998],[134.88100000000009,110.54999999999998],[135.0560000000001,110.37499999999999]],"i":[[-0.28000000000000114,0.21600000000000819],[0,0],[0.28000000000000114,-0.2569999999999908],[0.3269999999999982,-0.27899999999999636],[0.046999999999997044,-0.06999999999999318],[0,0],[-0.04599999999999227,0.046999999999997044],[0.26900000000000546,-0.20900000000000318],[1.7190000000000083,-0.9439999999999884],[1.9110000000000014,-0.6189999999999998],[3.6310000000000002,-0.1529999999999916],[0.40099999999999625,0],[0.9370000000000118,0.03499999999999659],[0.022999999999996135,-0.0010000000000047748],[0.9960000000000093,0.09899999999998954],[0.1629999999999967,0.019000000000005457],[1.6059999999999945,0.4129999999999967],[0.9329999999999927,0.3499999999999943],[0.17500000000001137,0.08199999999999363],[-0.15699999999999648,5.9410000000000025],[-0.2560000000000002,1.1659999999999968],[-0.06199999999999761,0.22500000000000853],[-4.700999999999993,0.2510000000000048],[-2.885000000000005,0.2259999999999991],[-0.022999999999996135,-0.001999999999995339],[-1.3290000000000077,0.17100000000000648],[-4.469000000000008,2.8760000000000048],[-1.3530000000000086,1.6479999999999961],[-0.7230000000000132,2.0700000000000074],[0,0],[0.06999999999999318,-0.04600000000000648],[0.046999999999997044,-0.09399999999999409],[0.257000000000005,-0.46699999999999875],[0.07100000000002638,-0.09300000000000352],[-0.022999999999996135,-0.11599999999999966],[-0.06999999999999318,-0.046999999999997044],[-0.11700000000001864,0.022999999999996135],[-0.046999999999997044,0.06900000000000261],[-0.0700000000000216,0.09300000000000352],[0,0],[-0.18500000000000227,0.3990000000000009],[0,0],[0.03699999999997772,0],[0.06999999999999318,-0.07000000000000739],[0.21000000000000796,-0.16400000000000148],[0,-0.022999999999996135],[0.04599999999999227,-0.046999999999997044],[0,-0.022999999999996135],[0.28000000000000114,-0.20900000000000318],[0.022999999999996135,-0.04600000000000648],[0,-0.022999999999996135],[0.022999999999996135,-0.02400000000000091],[0,0],[-0.2330000000000041,-0.1869999999999976],[0,-0.046999999999997044],[0,0],[0,0],[-0.047000000000025466,-0.07000000000000739],[-0.18700000000001182,-0.04599999999999227],[-0.06999999999999318,0.022999999999996135],[0,0],[-0.0700000000000216,0.07000000000000739],[-0.0700000000000216,0.06999999999999318],[-0.28000000000000114,0.20899999999998897],[-0.058000000000021146,0.057999999999992724]],"o":[[0,0],[-0.5370000000000061,0.5370000000000061],[-0.30400000000000205,0.28000000000000114],[-0.04599999999999227,0.07099999999999795],[0,0],[-0.04599999999999227,0.02400000000000091],[-0.2669999999999959,0.22299999999999898],[-1.6200000000000045,1.2849999999999966],[-1.801000000000002,0.992999999999995],[-4.7960000000000065,1.5499999999999972],[-0.4159999999999968,0.02400000000000091],[-1,0],[-0.022999999999996135,-0.0010000000000047748],[-1.0819999999999936,-0.05200000000000671],[-0.16400000000000148,-0.015000000000000568],[-1.9429999999999978,-0.20600000000000307],[-1.073999999999998,-0.27899999999999636],[-0.18600000000000705,-0.08199999999999363],[-4.323999999999998,-2.159000000000006],[0.036000000000001364,-1.4380000000000024],[0.054000000000002046,-0.24099999999999966],[1.2169999999999987,-4.4069999999999965],[3.278000000000006,0.0030000000000001137],[0.02400000000000091,-0.001999999999995339],[1.426000000000002,-0.12099999999999511],[7.6710000000000065,-0.9879999999999995],[1.9860000000000042,-1.2819999999999965],[1.3770000000000095,-1.6880000000000024],[0,0],[-0.09299999999998931,-0.04600000000000648],[-0.09299999999998931,0.022999999999996135],[-0.2330000000000041,0.4899999999999949],[-0.06999999999999318,0.09399999999999409],[-0.06999999999999318,0.06999999999999318],[0.02400000000000091,0.09399999999999409],[0.07099999999999795,0.07099999999999795],[0.09299999999998931,-0.022999999999996135],[0.06999999999999318,-0.09399999999999409],[0,0],[0.21199999999998909,-0.37000000000000455],[0,0],[-0.03299999999998704,-0.012000000000000455],[-0.09299999999998931,0],[-0.30299999999999727,0.23399999999999466],[-0.02400000000000091,0],[-0.046999999999997044,0.04600000000000648],[-0.02400000000000091,0],[-0.28000000000000114,0.20999999999999375],[-0.04599999999999227,0.02400000000000091],[-0.022999999999996135,0],[-0.022999999999996135,0.02400000000000091],[0,0],[0,0.046999999999997044],[-0.06999999999999318,0.09300000000000352],[0,0],[0,0],[-0.13999999999998636,0.14100000000000534],[0,0.1629999999999967],[0.022999999999996135,0.022999999999996135],[0,0],[0.06999999999999318,0],[0.04599999999999227,-0.04600000000000648],[0.28000000000000114,-0.20999999999999375],[0.057999999999992724,-0.0589999999999975],[0.18699999999989814,-0.14599999999998658]]}}},{"ty":"sh","ks":{"a":0,"k":{"c":true,"v":[[132.254,89.504],[132.184,89.25800000000001],[131.939,89.11800000000001],[131.694,89.22300000000001],[128.367,91.63900000000001],[128.227,91.849],[128.262,92.09400000000001],[128.473,92.269],[128.71800000000002,92.23400000000001],[132.14900000000003,89.748]],"i":[[0,0.09299999999998931],[0.046999999999997044,0.046999999999997044],[0.09399999999999409,0],[0.04599999999999227,-0.06900000000000261],[1.2379999999999995,-0.7469999999999999],[0,-0.09399999999999409],[-0.06999999999999318,-0.09300000000000352],[-0.09400000000002251,-0.022999999999996135],[-0.09399999999999409,0.046999999999997044],[-1.0030000000000143,0.8870000000000005]],"o":[[0,-0.11700000000000443],[-0.06999999999999318,-0.09300000000000352],[-0.11699999999999022,0],[-0.9799999999999898,0.8640000000000043],[-0.09299999999998931,0.04600000000000648],[-0.04599999999999227,0.06999999999999318],[0.046999999999997044,0.09399999999999409],[0.06999999999999318,0.02400000000000091],[1.282999999999987,-0.769999999999996],[0.06999999999996476,-0.06900000000000261]]}}},{"ty":"sh","ks":{"a":0,"k":{"c":true,"v":[[128.893,113.737],[128.648,113.737],[124.901,115.38199999999999],[124.691,115.55699999999999],[124.691,115.838],[124.866,116.01299999999999],[125.146,116.04799999999999],[128.963,114.36799999999998],[129.138,114.15699999999998],[129.103,113.91199999999998]],"i":[[0.09299999999998931,0.023000000000010346],[0.06999999999999318,-0.046999999999997044],[1.2600000000000051,-0.465999999999994],[0.046999999999997044,-0.09300000000000352],[-0.046999999999997044,-0.0940000000000083],[-0.09300000000000352,-0.046999999999997044],[-0.09300000000000352,0.023000000000010346],[-1.2609999999999957,0.6290000000000049],[-0.047000000000025466,0.09399999999999409],[0.046999999999997044,0.07000000000000739]],"o":[[-0.09299999999998931,-0.046999999999997044],[-1.2379999999999995,0.6299999999999955],[-0.09300000000000352,0.02400000000000091],[-0.046999999999997044,0.09399999999999409],[0.022999999999996135,0.06999999999999318],[0.09300000000000352,0.04600000000000648],[1.284000000000006,-0.49099999999999966],[0.06999999999999318,-0.046999999999997044],[0.022999999999996135,-0.09300000000000352],[-0.046999999999997044,-0.09399999999997988]]}}},{"ty":"sh","ks":{"a":0,"k":{"c":true,"v":[[92.474,99.765],[92.229,99.87],[89.918,103.476],[89.918,103.756],[90.128,103.931],[90.408,103.896],[90.583,103.686],[92.684,100.394],[92.789,100.14800000000001],[92.71900000000001,99.903]],"i":[[0.09399999999999409,0],[0.07000000000000739,-0.07000000000000739],[0.46699999999999875,-1.492999999999995],[-0.046999999999997044,-0.09300000000000352],[-0.09299999999998931,-0.04599999999999227],[-0.09300000000000352,0.046999999999997044],[-0.04599999999999227,0.09299999999998931],[-0.9569999999999936,0.8410000000000082],[0,0.09399999999999409],[0.046999999999997044,0.047000000000011255]],"o":[[-0.09300000000000352,0],[-1.073999999999998,0.9099999999999966],[-0.046999999999997044,0.09399999999999409],[0.04600000000000648,0.06999999999999318],[0.09300000000000352,0.022999999999996135],[0.06999999999999318,-0.04600000000000648],[0.44299999999999784,-1.355000000000004],[0.06999999999999318,-0.07099999999999795],[0,-0.11599999999999966],[-0.06900000000000261,-0.09199999999999875]]}}},{"ty":"sh","ks":{"a":0,"k":{"c":true,"v":[[89.358,107.329],[89.253,107.574],[89.918,111.952],[90.093,112.127],[90.373,112.16199999999999],[90.548,111.952],[90.583,111.706],[89.953,107.574],[89.848,107.329],[89.603,107.22399999999999]],"i":[[0.06999999999999318,-0.06999999999999318],[0,-0.09300000000000352],[-0.46700000000001296,-1.2609999999999957],[-0.09300000000000352,-0.046999999999997044],[-0.09300000000000352,0.023000000000010346],[-0.046999999999997044,0.09299999999998931],[0.023000000000010346,0.07099999999999795],[-0.023000000000010346,1.5640000000000072],[0.07000000000000739,0.07000000000000739],[0.09300000000000352,0]],"o":[[-0.06999999999999318,0.06999999999999318],[-0.022999999999996135,1.6569999999999965],[0.022999999999996135,0.06999999999999318],[0.09300000000000352,0.04600000000000648],[0.06999999999999318,-0.046999999999997044],[0.04600000000000648,-0.09399999999999409],[-0.44299999999999784,-1.1899999999999977],[0,-0.09300000000000352],[-0.06999999999999318,-0.06999999999999318],[-0.09299999999998931,1.4210854715202004e-14]]}}},{"ty":"sh","ks":{"a":0,"k":{"c":true,"v":[[92.404,115.523],[95.871,117.52],[96.151,117.58999999999999],[96.396,117.55499999999999],[96.571,117.344],[96.536,117.064],[96.32600000000001,116.92399999999999],[96.11600000000001,116.854],[92.85900000000001,114.998],[92.614,114.894],[92.369,115.033],[92.264,115.279]],"i":[[-0.09299999999998931,-0.06999999999999318],[-1.3780000000000001,-0.5139999999999958],[-0.11700000000000443,-0.0239999999999867],[-0.09300000000000352,0.046999999999997044],[-0.02400000000000091,0.07099999999999795],[0.046999999999997044,0.09300000000000352],[0.06999999999999318,0],[0.06199999999999761,0.007999999999995566],[0.8640000000000043,0.7469999999999999],[0.07000000000000739,0],[0.047000000000011255,-0.09299999999998931],[0,-0.09399999999999409]],"o":[[0.9339999999999975,0.8169999999999931],[0.06999999999999318,0.022999999999996135],[0.06999999999999318,0.022999999999996135],[0.09300000000000352,-0.07099999999999795],[0.022999999999996135,-0.09300000000000352],[-0.06999999999999318,-0.09399999999999409],[-0.07800000000000296,-0.03900000000000148],[-1.308000000000007,-0.4899999999999949],[-0.09300000000000352,-0.06999999999999318],[-0.11700000000000443,0],[-0.06999999999999318,0.07099999999999795],[0,0.09199999999999875]]}}},{"ty":"sh","ks":{"a":0,"k":{"c":true,"v":[[120.664,95.423],[120.944,95.458],[124.901,94.128],[125.076,93.917],[125.11099999999999,93.672],[124.901,93.462],[124.65599999999999,93.462],[120.76899999999999,94.792],[120.559,94.932],[120.524,95.212]],"i":[[-0.07000000000000739,-0.07099999999999795],[-0.09300000000000352,0.023000000000010346],[-1.2379999999999995,0.4899999999999949],[-0.04599999999999227,0.09399999999999409],[0.023000000000010346,0.07000000000000739],[0.09299999999998931,0.04599999999999227],[0.07000000000000739,-0.046999999999997044],[1.3769999999999953,-0.4200000000000017],[0.04599999999999227,-0.07000000000000739],[-0.046999999999997044,-0.09300000000000352]],"o":[[0.09300000000000352,0.04600000000000648],[1.4000000000000057,-0.39700000000000557],[0.06999999999999318,-0.046999999999997044],[0.046999999999997044,-0.09300000000000352],[-0.046999999999997044,-0.09300000000000352],[-0.09300000000000352,-0.046999999999997044],[-1.2139999999999986,0.46699999999999875],[-0.09300000000000352,0.022999999999996135],[-0.06999999999999318,0.09300000000000352],[0.022999999999996135,0.06999999999999318]]}}},{"ty":"sh","ks":{"a":0,"k":{"c":true,"v":[[117.162,96.053],[117.022,95.843],[116.742,95.772],[112.75,96.50800000000001],[112.505,96.647],[112.434,96.92800000000001],[112.575,97.138],[112.855,97.208],[116.882,96.472],[117.12700000000001,96.333]],"i":[[0.022999999999996135,0.0940000000000083],[0.07000000000000739,0.046999999999997044],[0.09300000000000352,-0.022999999999996135],[1.3770000000000095,-0.21099999999999852],[0.04600000000000648,-0.06900000000000261],[-0.022999999999996135,-0.11700000000000443],[-0.07000000000000739,-0.046999999999997044],[-0.11700000000000443,0.023000000000010346],[-1.284000000000006,0.2810000000000059],[-0.07000000000000739,0.06900000000000261]],"o":[[-0.022999999999996135,-0.09399999999999409],[-0.09300000000000352,-0.07099999999999795],[-1.284000000000006,0.28000000000000114],[-0.11700000000000443,0.022999999999996135],[-0.07099999999999795,0.07099999999999795],[0.02400000000000091,0.09300000000000352],[0.06999999999999318,0.06999999999999318],[1.4000000000000057,-0.20999999999999375],[0.09300000000000352,-0.022999999999996135],[0.046999999999997044,-0.09300000000000352]]}}},{"ty":"sh","ks":{"a":0,"k":{"c":true,"v":[[108.653,96.998],[104.55600000000001,97.348],[104.31000000000002,97.488],[104.20500000000001,97.734],[104.34500000000001,97.979],[104.59100000000001,98.04899999999999],[108.72300000000001,97.699],[108.96800000000002,97.595],[109.03800000000001,97.315],[108.933,97.07]],"i":[[0.09299999999998931,-0.02400000000000091],[1.3999999999999915,-0.09299999999998931],[0.046999999999997044,-0.09300000000000352],[0,-0.09399999999999409],[-0.09300000000000352,-0.07000000000000739],[-0.09399999999999409,0],[-1.331000000000003,0.14000000000000057],[-0.07000000000000739,0.06900000000000261],[0.023000000000010346,0.09300000000000352],[0.07000000000000739,0.07000000000000739]],"o":[[-1.331000000000003,0.14000000000000057],[-0.11700000000000443,0],[-0.06999999999999318,0.07099999999999795],[0,0.09300000000000352],[0.06999999999999318,0.046999999999997044],[1.4230000000000018,-0.09300000000000352],[0.09300000000000352,0],[0.06999999999999318,-0.09399999999999409],[0,-0.09300000000000352],[-0.09300000000000352,-0.07199999999998852]]}}},{"ty":"sh","ks":{"a":0,"k":{"c":true,"v":[[109.353,108.799],[107.077,104.176],[101.684,102.25],[96.291,104.176],[94.015,108.799],[96.291,113.42200000000001],[101.684,115.34800000000001],[107.077,113.42200000000001]],"i":[[0,1.7979999999999876],[1.516999999999996,1.2850000000000108],[2.100999999999999,0],[1.4939999999999998,-1.2830000000000013],[0,-1.7970000000000113],[-1.5180000000000007,-1.284000000000006],[-2.100999999999999,0],[-1.4939999999999998,1.284000000000006]],"o":[[0,-1.796999999999997],[-1.4939999999999998,-1.2830000000000013],[-2.100999999999999,0],[-1.5180000000000007,1.2849999999999966],[0,1.7980000000000018],[1.4939999999999998,1.284000000000006],[2.100999999999999,0],[1.516999999999996,-1.284000000000006]]}}},{"ty":"sh","ks":{"a":0,"k":{"c":true,"v":[[100.423,97.524],[98.498,97.559],[98.46300000000001,97.559],[96.15200000000002,97.945],[95.94200000000002,98.085],[95.90700000000002,98.36399999999999],[96.04700000000003,98.57399999999998],[96.32700000000003,98.60999999999999],[98.53300000000003,98.25999999999999],[100.45900000000003,98.22399999999999],[100.70400000000004,98.11999999999999],[100.77400000000003,97.874],[100.66900000000003,97.62899999999999]],"i":[[0.09399999999999409,0],[0.6529999999999916,0],[0,0],[0.6999999999999886,-0.1869999999999976],[0.046999999999997044,-0.09399999999999409],[-0.046999999999997044,-0.11599999999999966],[-0.09300000000000352,-0.06999999999999318],[-0.11700000000000443,0.022999999999996135],[-0.7930000000000064,0.06999999999999318],[-0.6310000000000002,0.02400000000000091],[-0.07000000000000739,0.06900000000000261],[0,0.09399999999999409],[0.07000000000000739,0.047000000000011255]],"o":[[-0.6299999999999955,0.022999999999996135],[0,0],[-0.8400000000000034,0.06999999999999318],[-0.09300000000000352,0],[-0.06999999999999318,0.06999999999999318],[0,0.07099999999999795],[0.06999999999999318,0.046999999999997044],[0.6770000000000067,-0.1629999999999967],[0.6530000000000058,0],[0.09300000000000352,0],[0.04600000000000648,-0.07099999999999795],[0,-0.11599999999999966],[-0.0700000000000216,-0.06999999999999318]]}}},{"ty":"sh","ks":{"a":0,"k":{"c":true,"v":[[100.178,117.869],[100.038,118.114],[100.10799999999999,118.35900000000001],[100.353,118.49900000000001],[104.556,118.95500000000001],[104.801,118.88400000000001],[104.906,118.63900000000001],[104.83600000000001,118.394],[104.59100000000001,118.253],[100.459,117.798]],"i":[[0.07000000000000739,-0.06999999999999318],[0.022999999999996135,-0.11700000000000443],[-0.06999999999999318,-0.07000000000000739],[-0.11599999999999966,-0.022999999999996135],[-1.5180000000000007,-0.0940000000000083],[-0.07000000000000739,0.046999999999997044],[0,0.0940000000000083],[0.046999999999997044,0.04600000000000648],[0.09300000000000352,0],[1.2600000000000051,0.20999999999999375]],"o":[[-0.06999999999999318,0.04600000000000648],[-0.022999999999996135,0.09399999999999409],[0.046999999999997044,0.07099999999999795],[1.284000000000006,0.20999999999999375],[0.09300000000000352,0],[0.06999999999999318,-0.06999999999999318],[0,-0.11700000000000443],[-0.06999999999999318,-0.09399999999999409],[-1.4939999999999998,-0.09300000000000352],[-0.11700000000000443,-0.02200000000000557]]}}},{"ty":"sh","ks":{"a":0,"k":{"c":true,"v":[[116.917,118.254],[120.979,117.308],[121.189,117.13300000000001],[121.22399999999999,116.888],[121.04899999999999,116.67800000000001],[120.80399999999999,116.64300000000001],[116.77699999999999,117.55300000000001],[116.567,117.72800000000001],[116.497,117.97300000000001],[116.672,118.21900000000001]],"i":[[-0.09300000000000352,0.022999999999996135],[-1.4239999999999924,0.375],[-0.06999999999999318,0.09399999999999409],[0.023000000000010346,0.07000000000000739],[0.09300000000000352,0.046999999999997044],[0.07000000000000739,-0.046999999999997044],[1.2830000000000013,-0.2569999999999908],[0.04599999999999227,-0.09399999999999409],[-0.02400000000000091,-0.09300000000000352],[-0.09399999999999409,-0.07099999999999795]],"o":[[1.2830000000000013,-0.257000000000005],[0.06999999999999318,-0.022999999999996135],[0.04600000000000648,-0.09300000000000352],[-0.022999999999996135,-0.09399999999999409],[-0.09300000000000352,-0.07099999999999795],[-1.4009999999999962,0.3499999999999943],[-0.09300000000000352,0.022999999999996135],[-0.06999999999999318,0.06999999999999318],[0.022999999999996135,0.09399999999999409],[0.07000000000000739,0.046999999999997044]]}}},{"ty":"sh","ks":{"a":0,"k":{"c":true,"v":[[108.478,118.954],[108.723,119.05799999999999],[109.948,119.05799999999999],[109.98299999999999,119.05799999999999],[112.74999999999999,118.883],[112.99499999999999,118.779],[113.06499999999998,118.499],[112.95999999999998,118.289],[112.67999999999998,118.184],[109.94799999999998,118.359],[108.72299999999998,118.359],[108.47799999999998,118.464],[108.37199999999999,118.709]],"i":[[-0.07099999999999795,-0.06999999999999318],[-0.0940000000000083,0],[-0.4199999999999875,0],[0,0],[-0.9579999999999984,0.09399999999999409],[-0.07000000000000739,0.06900000000000261],[0,0.09300000000000352],[0.07000000000000739,0.046999999999997044],[0.09300000000000352,0],[0.8640000000000043,-0.022999999999996135],[0.39699999999999136,0],[0.07000000000000739,-0.07000000000000739],[0,-0.09300000000000352]],"o":[[0.06999999999999318,0.06999999999999318],[0.39700000000000557,0],[0,0],[0.8880000000000052,-0.022999999999996135],[0.09300000000000352,0],[0.046999999999997044,-0.09399999999999409],[0,-0.09300000000000352],[-0.09300000000000352,-0.06999999999999318],[-0.9579999999999984,0.09399999999999409],[-0.4200000000000017,0],[-0.09399999999999409,0],[-0.07099999999999795,0.06999999999999318],[0,0.09300000000000352]]}}},{"ty":"st","o":{"a":0,"k":0},"w":{"a":0,"k":0},"c":{"a":0,"k":[0,0,0,0]},"lc":3,"lj":1,"ml":1},{"ty":"fl","o":{"a":0,"k":100},"r":2,"c":{"a":0,"k":[0,0.5803921568627451,0.37254901960784315,1]}},{"ty":"tr","o":{"a":0,"k":100},"a":{"a":0,"k":[0,0]},"s":{"a":0,"k":[100,100]},"p":{"a":0,"k":[0,0]},"r":{"a":0,"k":0}}]},{"ty":"gr","nm":"SGAnimation-01 shape group","it":[{"ty":"sh","ks":{"a":0,"k":{"c":true,"v":[[127.597,116.713],[127.597,136.393],[124.883,140.578],[123.693,140.43800000000002],[122.975,140.228],[122.835,140.175],[109.38799999999999,135.34300000000002],[109.38799999999999,121.68600000000002],[122.029,119.13100000000001]],"i":[[-1.8009999999999877,0.9920000000000044],[0,0],[1.8089999999999975,-0.04099999999999682],[0.43200000000000216,0.09699999999997999],[0.24800000000000466,0.08200000000002206],[0.04999999999999716,0.016999999999995907],[0,0],[0,0],[-4.7960000000000065,1.5490000000000066]],"o":[[0,0],[0,2.7489999999999952],[-0.3610000000000042,0.003999999999990678],[-0.23099999999999454,-0.057999999999992724],[-0.04399999999999693,-0.018000000000000682],[0,0],[0,0],[3.6310000000000002,-0.15399999999999636],[1.9110000000000014,-0.6210000000000093]]}}},{"ty":"sh","ks":{"a":0,"k":{"c":true,"v":[[127.597,80.784],[127.597,85.003],[118.633,89.748],[109.38799999999999,90.938],[109.38799999999999,74.411]],"i":[[0,0],[0,0],[3.4399999999999977,-0.9480000000000075],[4.079999999999998,-0.20999999999999375],[0,0]],"o":[[0,0],[-2.5360000000000014,2.2150000000000034],[-2.084000000000003,0.5840000000000032],[0,0],[0,0]]}}},{"ty":"st","o":{"a":0,"k":0},"w":{"a":0,"k":0},"c":{"a":0,"k":[0,0,0,0]},"lc":3,"lj":1,"ml":1},{"ty":"fl","o":{"a":0,"k":100},"r":2,"c":{"a":0,"k":[0.011764705882352941,0.4745098039215686,0.30980392156862746,1]}},{"ty":"tr","o":{"a":0,"k":100},"a":{"a":0,"k":[0,0]},"s":{"a":0,"k":[100,100]},"p":{"a":0,"k":[0,0]},"r":{"a":0,"k":0}}]},{"ty":"gr","nm":"SGAnimation-01 shape group","it":[{"ty":"sh","ks":{"a":0,"k":{"c":true,"v":[[105.256,91.081],[109.388,90.94],[118.63300000000001,89.75],[127.59700000000001,85.005],[132.395,79.175],[132.395,71.716],[132.60500000000002,71.874],[135.75600000000003,78.92999999999999],[132.60500000000002,84.568],[127.59700000000002,88.963],[109.38800000000002,94.758],[105.25600000000001,95.196],[105.18600000000002,95.196],[95.94100000000002,95.529],[87.06400000000002,102.515],[86.88900000000002,103.215],[86.45100000000002,107.12],[92.70200000000003,119.271],[91.14400000000002,118.5],[84.38600000000002,106.594],[89.81400000000002,93.393],[101.58000000000003,91.133],[102.07000000000002,91.133],[102.84100000000002,91.11699999999999],[105.18700000000003,91.082]],"i":[[-0.022999999999996135,-0.0010000000000047748],[-1.2790000000000106,0.06500000000001194],[-2.084000000000003,0.5840000000000032],[-2.5360000000000014,2.2150000000000034],[-1.3629999999999995,2.274000000000001],[0,0],[-0.0700000000000216,-0.055999999999997385],[-0.8190000000000168,-3.6539999999999964],[1.3770000000000095,-1.6890000000000072],[1.9860000000000042,-1.2819999999999965],[7.6710000000000065,-0.9879999999999995],[1.426000000000002,-0.12100000000000932],[0.0239999999999867,-0.001999999999995339],[3.2790000000000106,0.0030000000000001137],[1.2169999999999987,-4.407000000000011],[0.054000000000002046,-0.24099999999999966],[0.03700000000000614,-1.4380000000000024],[-4.323999999999998,-2.1599999999999966],[0.4900000000000091,0.26300000000000523],[0,5.440000000000012],[-3.6189999999999998,2.1709999999999923],[-5.625,0.15800000000000125],[-0.16499999999999204,-0.001999999999995339],[-0.2609999999999957,0.0020000000000095497],[-0.7560000000000002,0.018000000000000682]],"o":[[1.475999999999999,-0.028999999999996362],[4.079999999999998,-0.20999999999999375],[3.4399999999999977,-0.9479999999999933],[1.8360000000000127,-1.6129999999999995],[0,0],[0.06999999999999318,0.049000000000006594],[1.281000000000006,1.0499999999999972],[-0.7230000000000132,2.069999999999993],[-1.3530000000000086,1.6479999999999961],[-4.468999999999994,2.8760000000000048],[-1.3289999999999935,0.17100000000000648],[-0.022999999999996135,-0.001999999999995339],[-2.885000000000005,0.22499999999999432],[-4.700999999999993,0.25],[-0.06199999999999761,0.22499999999999432],[-0.2560000000000002,1.1659999999999968],[-0.15699999999999648,5.9410000000000025],[-0.5480000000000018,-0.25],[-4.506,-2.497],[0,-6.6299999999999955],[2.218999999999994,-1.3490000000000038],[0.16200000000000614,-0.001999999999995339],[0.2540000000000049,-0.007999999999995566],[0.8070000000000022,-0.006000000000000227],[0.022999999999967713,-0.001999999999995339]]}}},{"ty":"st","o":{"a":0,"k":0},"w":{"a":0,"k":0},"c":{"a":0,"k":[0,0,0,0]},"lc":3,"lj":1,"ml":1},{"ty":"fl","o":{"a":0,"k":100},"r":2,"c":{"a":0,"k":[0.23137254901960785,0.7254901960784313,0.5450980392156862,1]}},{"ty":"tr","o":{"a":0,"k":100},"a":{"a":0,"k":[0,0]},"s":{"a":0,"k":[100,100]},"p":{"a":0,"k":[0,0]},"r":{"a":0,"k":0}}]},{"ty":"gr","nm":"SGAnimation-01 shape group","it":[{"ty":"sh","ks":{"a":0,"k":{"c":true,"v":[[128.893,113.737],[129.103,113.91199999999999],[129.138,114.157],[128.963,114.368],[125.14599999999999,116.048],[124.86599999999999,116.013],[124.69099999999999,115.83800000000001],[124.69099999999999,115.558],[124.90099999999998,115.38300000000001],[128.64799999999997,113.73700000000001]],"i":[[-0.09299999999998931,-0.04599999999999227],[-0.046999999999997044,-0.09399999999999409],[0.022999999999996135,-0.09300000000000352],[0.0700000000000216,-0.04800000000000182],[1.284000000000006,-0.4900000000000091],[0.09300000000000352,0.046999999999997044],[0.022999999999996135,0.06999999999999318],[-0.046999999999997044,0.09300000000000352],[-0.09299999999998931,0.022999999999996135],[-1.2379999999999853,0.6310000000000002]],"o":[[0.09299999999998931,0.022999999999996135],[0.046999999999997044,0.06999999999999318],[-0.046999999999997044,0.09399999999999409],[-1.2609999999999957,0.6290000000000049],[-0.09300000000000352,0.022999999999996135],[-0.09300000000000352,-0.046999999999997044],[-0.046999999999997044,-0.09399999999999409],[0.04600000000000648,-0.09300000000000352],[1.2600000000000051,-0.46699999999999875],[0.0700000000000216,-0.04600000000000648]]}}},{"ty":"sh","ks":{"a":0,"k":{"c":true,"v":[[135.756,109.832],[135.056,110.375],[134.881,110.55],[134.04,111.17999999999999],[133.86499999999998,111.35499999999999],[133.65499999999997,111.46],[133.61999999999998,111.46],[133.48,111.46],[133.2,111.145],[133.33999999999997,110.83],[133.37499999999997,110.865],[133.79499999999996,111.35499999999999],[133.89999999999995,111.145],[133.54999999999995,110.795],[133.37499999999994,110.865],[133.44499999999994,110.795],[133.47999999999993,110.76],[133.58499999999992,110.655],[134.42499999999993,110.025],[134.45999999999992,109.99000000000001],[134.6009999999999,109.85000000000001],[134.6359999999999,109.81500000000001],[135.40599999999992,109.21900000000001],[135.65099999999993,109.11500000000001],[135.75599999999991,109.13100000000001],[135.8959999999999,109.25400000000002],[135.9659999999999,109.50000000000001],[135.8609999999999,109.74500000000002]],"i":[[0.033999999999991815,-0.029999999999986926],[0.1869999999999834,-0.14500000000001023],[0.058000000000021146,-0.0589999999999975],[0.28000000000000114,-0.20899999999998897],[0.04600000000002069,-0.04599999999999227],[0.0700000000000216,0],[0,0],[0.022999999999996135,0.022999999999996135],[0,0.1629999999999967],[-0.13999999999998636,0.14000000000000057],[0,0],[0,0],[-0.06999999999999318,0.09399999999999409],[0,0.04599999999999227],[0,0],[-0.022999999999996135,0.0239999999999867],[-0.022999999999996135,0],[-0.046999999999997044,0.023000000000010346],[-0.28000000000000114,0.20899999999998897],[-0.022999999999996135,0],[-0.046999999999997044,0.04600000000000648],[-0.02400000000000091,0],[-0.30299999999999727,0.23400000000000887],[-0.09300000000001774,0],[-0.033999999999991815,-0.01100000000000989],[-0.04199999999997317,-0.056000000000011596],[0,-0.09399999999999409],[0.06999999999999318,-0.07000000000000739]],"o":[[-0.27899999999999636,0.21699999999999875],[-0.057999999999992724,0.058000000000006935],[-0.28000000000000114,0.20999999999999375],[-0.06999999999999318,0.07099999999999795],[-0.06999999999999318,0.07099999999999795],[0,0],[-0.06999999999999318,0.022999999999996135],[-0.18700000000001182,-0.04600000000000648],[-0.046999999999997044,-0.06999999999999318],[0,0],[0,0],[0,-0.04600000000000648],[-0.2330000000000041,-0.1869999999999976],[0,0],[0.022999999999996135,-0.022999999999996135],[0,-0.022999999999996135],[0.022999999999996135,-0.046999999999997044],[0.28000000000000114,-0.20999999999999375],[0,-0.022999999999996135],[0.046999999999997044,-0.046999999999997044],[0,-0.022999999999996135],[0.21000000000000796,-0.1629999999999967],[0.06999999999999318,-0.06999999999999318],[0.03700000000000614,0],[0.05099999999998772,0.02599999999999625],[0.04599999999999227,0.07099999999999795],[0,0.09300000000000352],[-0.0359999999999161,0.027999999999977376]]}}},{"ty":"sh","ks":{"a":0,"k":{"c":true,"v":[[132.254,89.504],[132.149,89.74900000000001],[128.718,92.23500000000001],[128.47199999999998,92.27000000000001],[128.26199999999997,92.09500000000001],[128.22699999999998,91.85000000000001],[128.36699999999996,91.64000000000001],[131.69399999999996,89.22400000000002],[131.93899999999996,89.11900000000001],[132.18399999999997,89.25900000000001]],"i":[[0,-0.11599999999999966],[0.06999999999999318,-0.07000000000000739],[1.2830000000000155,-0.7700000000000102],[0.0700000000000216,0.02400000000000091],[0.046999999999997044,0.09399999999999409],[-0.046999999999997044,0.07000000000000739],[-0.09299999999998931,0.046999999999997044],[-0.9799999999999898,0.8629999999999995],[-0.11700000000001864,0],[-0.06999999999999318,-0.09300000000000352]],"o":[[0,0.09300000000000352],[-1.002999999999986,0.8870000000000005],[-0.09399999999999409,0.046999999999997044],[-0.09299999999998931,-0.022999999999996135],[-0.06999999999999318,-0.09300000000000352],[0,-0.09399999999999409],[1.2379999999999995,-0.7469999999999999],[0.04599999999999227,-0.06999999999999318],[0.09299999999998931,0],[0.047000000000025466,0.04699999999998283]]}}},{"ty":"sh","ks":{"a":0,"k":{"c":true,"v":[[135.756,84.952],[135.161,86.107],[135.126,86.143],[134.916,86.423],[134.706,86.563],[134.42499999999998,86.492],[134.285,86.28200000000001],[134.355,86.00300000000001],[134.566,85.72300000000001],[135.30100000000002,84.287],[135.51100000000002,84.11200000000001],[135.75600000000003,84.11200000000001],[135.96600000000004,84.322],[135.93100000000004,84.56700000000001]],"i":[[0.060000000000002274,-0.12600000000000477],[0.21199999999998909,-0.3709999999999951],[0,0],[0.0700000000000216,-0.09300000000000352],[0.09300000000001774,-0.022999999999996135],[0.06999999999999318,0.07099999999999795],[0.022999999999996135,0.09399999999999409],[-0.06999999999999318,0.06900000000000261],[-0.07100000000002638,0.09300000000000352],[-0.23400000000000887,0.4900000000000091],[-0.09300000000001774,0.022999999999996135],[-0.09300000000001774,-0.04600000000000648],[-0.046999999999997044,-0.09399999999999409],[0.046999999999997044,-0.09300000000000352]],"o":[[-0.18500000000000227,0.3990000000000009],[0,0],[-0.06999999999999318,0.09399999999999409],[-0.046999999999997044,0.06999999999999318],[-0.11699999999999022,0.022999999999996135],[-0.06999999999999318,-0.04600000000000648],[-0.022999999999996135,-0.11599999999999966],[0.06999999999999318,-0.09399999999999409],[0.257000000000005,-0.46699999999999875],[0.046999999999997044,-0.09399999999999409],[0.06999999999999318,-0.04600000000000648],[0.09299999999998931,0.04600000000000648],[0.022999999999996135,0.06999999999999318],[-0.05700000000004479,0.13099999999998602]]}}},{"ty":"sh","ks":{"a":0,"k":{"c":true,"v":[[2.059,23.251],[2.129,23.111],[2.304,23.076],[2.444,23.286],[2.549,23.566000000000003],[2.549,27.488000000000003],[2.444,27.663000000000004],[2.304,27.663000000000004],[2.129,27.488000000000003],[2.059,27.174000000000003]],"i":[[0,0],[-0.04699999999999971,0.02400000000000091],[-0.06999999999999984,-0.022999999999999687],[-0.04700000000000015,-0.09299999999999997],[0,-0.06900000000000261],[0,0],[0.06999999999999984,-0.022999999999999687],[0.04700000000000015,0.0470000000000006],[0.04599999999999982,0.0940000000000012],[0,0.09299999999999997]],"o":[[0,-0.07000000000000028],[0.04599999999999982,-0.045999999999999375],[0.04599999999999982,0.045999999999999375],[0.06999999999999984,0.11700000000000088],[0,0],[0,0.0940000000000012],[-0.04599999999999982,0.0470000000000006],[-0.06999999999999984,-0.022999999999999687],[-0.04700000000000015,-0.11599999999999966],[0,0]]}}},{"ty":"sh","ks":{"a":0,"k":{"c":true,"v":[[2.304,15.232],[2.444,15.443],[2.549,15.757],[2.549,19.68],[2.444,19.82],[2.304,19.82],[2.129,19.645],[2.059,19.365],[2.059,15.442999999999998],[2.129,15.267999999999997]],"i":[[-0.06999999999999984,-0.023999999999999133],[-0.04700000000000015,-0.09399999999999942],[0,-0.09299999999999997],[0,0],[0.06999999999999984,-0.02400000000000091],[0.04700000000000015,0.045999999999999375],[0.04599999999999982,0.09299999999999997],[0,0.06900000000000261],[0,0],[-0.04699999999999971,0.023000000000001464]],"o":[[0.04599999999999982,0.0470000000000006],[0.06999999999999984,0.11599999999999966],[0,0],[0,0.07000000000000028],[-0.04599999999999982,0.045999999999999375],[-0.06999999999999984,-0.02400000000000091],[-0.04700000000000015,-0.11700000000000088],[0,0],[0,-0.09399999999999942],[0.04599999999999982,-0.04799999999999649]]}}},{"ty":"sh","ks":{"a":0,"k":{"c":true,"v":[[4.125,9.594],[4.3,9.699],[4.475,9.978],[4.4399999999999995,10.189],[4.3,10.328],[2.69,12.01],[2.585,12.185],[2.375,12.115],[2.235,11.904],[2.1999999999999997,11.624]],"i":[[-1.0030000000000001,-0.04699999999999882],[-0.04699999999999971,-0.09299999999999997],[-0.04699999999999971,-0.11599999999999966],[0.023000000000000576,-0.04800000000000004],[0.04699999999999971,-0.022999999999999687],[0.20999999999999996,-1.1679999999999993],[0.04700000000000015,-0.023000000000001464],[0.06999999999999984,0.07000000000000028],[0.04700000000000015,0.07099999999999973],[-0.02400000000000002,0.04699999999999882]],"o":[[0.07000000000000028,-0.022999999999999687],[0.07000000000000028,0.07000000000000028],[0,0.09399999999999942],[-0.04600000000000026,0.07000000000000028],[-0.863,-0.04499999999999993],[-0.02300000000000013,0.09399999999999942],[-0.06999999999999984,0.022999999999999687],[-0.04700000000000015,-0.07099999999999973],[-0.04700000000000015,-0.13899999999999935],[0.27900000000000036,-1.399000000000001]]}}},{"ty":"sh","ks":{"a":0,"k":{"c":true,"v":[[6.086,10.925],[5.9110000000000005,10.715],[5.841,10.435],[5.9110000000000005,10.26],[6.086,10.26],[9.027000000000001,11.940999999999999],[9.202000000000002,12.151],[9.272000000000002,12.43],[9.202000000000002,12.605],[9.027000000000001,12.605]],"i":[[0,0],[0.04699999999999971,0.11600000000000144],[0,0.09299999999999997],[-0.0470000000000006,0.04600000000000115],[-0.0699999999999994,-0.022999999999999687],[0,0],[-0.0470000000000006,-0.0940000000000012],[0,-0.06899999999999906],[0.0470000000000006,-0.023000000000001464],[0.07000000000000028,0.0470000000000006]],"o":[[-0.07000000000000028,-0.022999999999999687],[-0.04699999999999971,-0.09399999999999942],[0,-0.07000000000000028],[0.04699999999999971,-0.022999999999999687],[0,0],[0.07000000000000028,0.045999999999999375],[0.045999999999999375,0.11599999999999966],[0,0.09399999999999942],[-0.0470000000000006,0.0470000000000006],[0,0]]}}},{"ty":"sh","ks":{"a":0,"k":{"c":true,"v":[[101.579,91.133],[101.579,88.384],[101.64899999999999,88.174],[101.82399999999998,88.174],[101.96399999999998,88.384],[102.06899999999999,88.664],[102.06899999999999,91.132]],"i":[[0.16200000000000614,-0.0030000000000001137],[0,0],[-0.046999999999997044,0.046999999999997044],[-0.06999999999999318,-0.022999999999996135],[-0.046999999999997044,-0.09299999999998931],[0,-0.09300000000000352],[0,0]],"o":[[0,0],[0,-0.09300000000000352],[0.04600000000000648,-0.022999999999996135],[0.04600000000000648,0.04600000000000648],[0.06999999999999318,0.09399999999999409],[0,0],[-0.16499999999999204,-0.0020000000000095497]]}}},{"ty":"sh","ks":{"a":0,"k":{"c":true,"v":[[101.579,121.388],[102.06899999999999,121.441],[102.06899999999999,123.927],[101.96399999999998,124.102],[101.82399999999998,124.102],[101.64899999999999,123.89200000000001],[101.579,123.647]],"i":[[0,0],[-0.16400000000000148,-0.015999999999991132],[0,0],[0.07000000000000739,-0.022999999999996135],[0.046999999999997044,0.04600000000000648],[0.04599999999999227,0.11699999999999022],[0,0.09300000000000352]],"o":[[0.16200000000000614,0.019000000000005457],[0,0],[0,0.09399999999999409],[-0.04600000000000648,0.04600000000000648],[-0.06999999999999318,-0.022999999999996135],[-0.046999999999997044,-0.06999999999999318],[0,0]]}}},{"ty":"sh","ks":{"a":0,"k":{"c":true,"v":[[5.911,56.483],[5.771,56.272999999999996],[5.806,55.992999999999995],[6.016,55.852999999999994],[6.261,55.888999999999996],[9.903,57.989999999999995],[10.078000000000001,58.199999999999996],[10.043000000000001,58.44499999999999],[9.833,58.61999999999999],[9.553,58.584999999999994]],"i":[[0,0],[0.022999999999999687,0.07000000000000028],[-0.07000000000000028,0.09300000000000352],[-0.09299999999999997,0],[-0.09299999999999997,-0.07099999999999795],[0,0],[-0.0470000000000006,-0.0940000000000012],[0.0470000000000006,-0.09299999999999642],[0.07000000000000028,-0.022999999999996135],[0.09299999999999997,0.046999999999997044]],"o":[[-0.07000000000000028,-0.07000000000000028],[-0.04600000000000026,-0.0940000000000012],[0.04600000000000026,-0.09300000000000352],[0.07000000000000028,-0.045999999999999375],[0,0],[0.07000000000000028,0.045999999999999375],[0.022999999999999687,0.07000000000000028],[-0.07000000000000028,0.0940000000000012],[-0.09299999999999997,0.02300000000000324],[0,0]]}}},{"ty":"sh","ks":{"a":0,"k":{"c":true,"v":[[2.444,54.627],[2.549,54.942],[2.549,58.865],[2.444,59.004000000000005],[2.304,59.004000000000005],[2.129,58.82900000000001],[2.059,58.550000000000004],[2.059,54.627],[2.129,54.452000000000005],[2.304,54.41700000000001]],"i":[[-0.04700000000000015,-0.09300000000000352],[0,-0.09299999999999642],[0,0],[0.06999999999999984,-0.02300000000000324],[0.04700000000000015,0.046999999999997044],[0.04599999999999982,0.09399999999999409],[0,0.06900000000000261],[0,0],[-0.04699999999999971,0.023999999999993804],[-0.06999999999999984,-0.02300000000000324]],"o":[[0.06999999999999984,0.11699999999999733],[0,0],[0,0.07000000000000028],[-0.04599999999999982,0.046999999999997044],[-0.06999999999999984,-0.02300000000000324],[-0.04700000000000015,-0.11599999999999966],[0,0],[0,-0.09300000000000352],[0.04599999999999982,-0.045999999999999375],[0.04700000000000015,0.04599999999999227]]}}},{"ty":"sh","ks":{"a":0,"k":{"c":true,"v":[[2.129,46.608],[2.304,46.608],[2.444,46.782999999999994],[2.549,47.096999999999994],[2.549,51.019999999999996],[2.444,51.16],[2.304,51.16],[2.129,50.985],[2.059,50.705],[2.059,46.783]],"i":[[-0.04700000000000015,0.02300000000000324],[-0.06999999999999984,-0.02400000000000091],[-0.04700000000000015,-0.07099999999999795],[0,-0.09300000000000352],[0,0],[0.06999999999999984,0],[0.04700000000000015,0.045999999999999375],[0.04599999999999982,0.09299999999999642],[0,0.09300000000000352],[0,0]],"o":[[0.04599999999999982,-0.02400000000000091],[0.04599999999999982,0.045999999999999375],[0.06999999999999984,0.11599999999999966],[0,0],[0,0.09300000000000352],[-0.04599999999999982,0.045999999999999375],[-0.06999999999999984,-0.02400000000000091],[-0.04700000000000015,-0.0940000000000012],[0,0],[0,-0.09300000000000352]]}}},{"ty":"sh","ks":{"a":0,"k":{"c":true,"v":[[2.444,38.974],[2.549,39.254],[2.549,43.175999999999995],[2.444,43.315999999999995],[2.304,43.315999999999995],[2.129,43.141],[2.059,42.861],[2.059,38.939],[2.129,38.799],[2.304,38.764]],"i":[[-0.04700000000000015,-0.09399999999999409],[0,-0.09300000000000352],[0,0],[0.06999999999999984,0],[0.04700000000000015,0.045999999999999375],[0.04599999999999982,0.09299999999999642],[0,0.09300000000000352],[0,0],[-0.04699999999999971,0],[-0.06999999999999984,-0.02300000000000324]],"o":[[0.06999999999999984,0.0940000000000012],[0,0],[0,0.0940000000000012],[-0.04599999999999982,0.045999999999999375],[-0.06999999999999984,-0.02300000000000324],[-0.04700000000000015,-0.0940000000000012],[0,0],[0,-0.0940000000000012],[0.04599999999999982,-0.045999999999999375],[0.04700000000000015,0.046999999999997044]]}}},{"ty":"sh","ks":{"a":0,"k":{"c":true,"v":[[2.444,31.13],[2.549,31.41],[2.549,35.332],[2.444,35.507],[2.304,35.472],[2.129,35.332],[2.059,35.017],[2.059,31.095000000000002],[2.129,30.955000000000002],[2.304,30.92]],"i":[[-0.04700000000000015,-0.09299999999999997],[0,-0.07000000000000028],[0,0],[0.06999999999999984,-0.022999999999996135],[0.04700000000000015,0.046999999999997044],[0.04599999999999982,0.07000000000000028],[0,0.0940000000000012],[0,0],[-0.04699999999999971,0.022999999999999687],[-0.06999999999999984,-0.022999999999999687]],"o":[[0.06999999999999984,0.11700000000000088],[0,0],[0,0.0940000000000012],[-0.04599999999999982,0.02300000000000324],[-0.06999999999999984,-0.02300000000000324],[-0.04700000000000015,-0.11599999999999966],[0,0],[0,-0.07000000000000028],[0.04599999999999982,-0.045999999999999375],[0.04700000000000015,0.045999999999999375]]}}},{"ty":"sh","ks":{"a":0,"k":{"c":true,"v":[[58.788,40.69],[61.69499999999999,42.37],[61.86999999999999,42.580999999999996],[61.93999999999999,42.82599999999999],[61.86999999999999,43.035999999999994],[61.69499999999999,43.035999999999994],[58.788,41.355],[58.613,41.144],[58.543,40.864999999999995],[58.613,40.69]],"i":[[-0.06999999999999318,-0.046999999999997044],[0,0],[-0.045999999999999375,-0.0940000000000012],[0,-0.07000000000000028],[0.046999999999997044,-0.04700000000000415],[0.07000000000000028,0.045999999999999375],[0,0],[0.046999999999997044,0.0940000000000012],[0,0.09200000000000585],[-0.046999999999997044,0.045999999999999375]],"o":[[0,0],[0.07000000000000028,0.046999999999997044],[0.046999999999997044,0.09300000000000352],[0,0.0940000000000012],[-0.045999999999999375,0.045999999999999375],[0,0],[-0.07000000000000028,-0.046999999999997044],[-0.046999999999997044,-0.09300000000000352],[0,-0.07099999999999795],[0.045999999999999375,-0.046999999999997044]]}}},{"ty":"sh","ks":{"a":0,"k":{"c":true,"v":[[52.94,37.959],[52.765,37.784000000000006],[52.695,37.46900000000001],[52.765,37.330000000000005],[52.94,37.294000000000004],[55.846,39.010000000000005],[56.020999999999994,39.185],[56.090999999999994,39.465],[56.020999999999994,39.64],[55.846,39.675]],"i":[[0,0],[0.046999999999997044,0.09399999999999409],[0,0.0940000000000012],[-0.045999999999999375,0.02300000000000324],[-0.07000000000000028,-0.022999999999996135],[0,0],[-0.045999999999999375,-0.09299999999999642],[0,-0.07000000000000028],[0.046999999999997044,-0.022999999999996135],[0.07000000000000028,0.02300000000000324]],"o":[[-0.07000000000000028,-0.02300000000000324],[-0.045999999999999375,-0.11599999999999966],[0,-0.07000000000000028],[0.046999999999997044,-0.046999999999997044],[0,0],[0.07000000000000028,0.02300000000000324],[0.046999999999997044,0.11699999999999733],[0,0.09300000000000352],[-0.045999999999999375,0.045999999999999375],[0,0]]}}},{"ty":"sh","ks":{"a":0,"k":{"c":true,"v":[[35.361,27.839],[35.186,27.628999999999998],[35.116,27.349999999999998],[35.186,27.174999999999997],[35.361,27.174999999999997],[38.303,28.854999999999997],[38.477999999999994,29.064999999999998],[38.547999999999995,29.310999999999996],[38.477999999999994,29.520999999999997],[38.303,29.520999999999997]],"i":[[0,0],[0.046999999999997044,0.0940000000000012],[0,0.09199999999999875],[-0.046999999999997044,0.045999999999999375],[-0.07000000000000028,-0.0470000000000006],[0,0],[-0.07000000000000028,-0.09299999999999997],[0,-0.07099999999999795],[0.046999999999997044,-0.0470000000000006],[0.046999999999997044,0.045999999999999375]],"o":[[-0.07000000000000028,-0.045999999999999375],[-0.045999999999999375,-0.09299999999999997],[0,-0.0710000000000015],[0.046999999999997044,-0.0470000000000006],[0,0],[0.046999999999997044,0.045999999999999375],[0.046999999999997044,0.0940000000000012],[0,0.09299999999999997],[-0.07000000000000028,0.045999999999999375],[0,0]]}}},{"ty":"sh","ks":{"a":0,"k":{"c":true,"v":[[29.338,23.777],[29.513,23.777],[32.454,25.493000000000002],[32.594,25.668000000000003],[32.664,25.948000000000004],[32.594,26.123000000000005],[32.454,26.158000000000005],[29.513,24.442000000000004],[29.338,24.232000000000003],[29.268,23.952]],"i":[[-0.0470000000000006,0.045999999999999375],[-0.07000000000000028,-0.022999999999999687],[0,0],[-0.046999999999997044,-0.0940000000000012],[0,-0.07000000000000028],[0.045999999999999375,-0.02400000000000091],[0.046999999999997044,0.022999999999999687],[0,0],[0.045999999999999375,0.11599999999999966],[0,0.09299999999999997]],"o":[[0.045999999999999375,-0.022999999999999687],[0,0],[0.046999999999997044,0.022999999999999687],[0.045999999999999375,0.11700000000000088],[0,0.09299999999999997],[-0.046999999999997044,0.045999999999999375],[0,0],[-0.07000000000000028,-0.022999999999999687],[-0.0470000000000006,-0.0940000000000012],[0,-0.07000000000000028]]}}},{"ty":"sh","ks":{"a":0,"k":{"c":true,"v":[[23.42,20.59],[23.490000000000002,20.415],[23.665000000000003,20.415],[26.571,22.096],[26.746000000000002,22.306],[26.816000000000003,22.551000000000002],[26.746000000000002,22.761000000000003],[26.571,22.761000000000003],[23.665000000000003,21.081000000000003],[23.490000000000002,20.871000000000002]],"i":[[0,0.0940000000000012],[-0.0470000000000006,0.045999999999999375],[-0.07000000000000028,-0.045999999999999375],[0,0],[-0.0470000000000006,-0.0940000000000012],[0,-0.07000000000000028],[0.0470000000000006,-0.0470000000000006],[0.07000000000000028,0.0470000000000006],[0,0],[0.045999999999999375,0.09299999999999997]],"o":[[0,-0.07000000000000028],[0.045999999999999375,-0.045999999999999375],[0,0],[0.07000000000000028,0.045999999999999375],[0.0470000000000006,0.09299999999999997],[0,0.0940000000000012],[-0.0470000000000006,0.0470000000000006],[0,0],[-0.07000000000000028,-0.045999999999999375],[-0.0470000000000006,-0.0940000000000012]]}}},{"ty":"sh","ks":{"a":0,"k":{"c":true,"v":[[20.899,18.909],[20.969,19.189],[20.899,19.364],[20.724,19.399],[17.818,17.683],[17.643,17.473],[17.573,17.192999999999998],[17.643,17.017999999999997],[17.818,17.017999999999997],[20.724,18.732999999999997]],"i":[[-0.0470000000000006,-0.09299999999999997],[0,-0.06900000000000261],[0.0470000000000006,-0.022999999999999687],[0.07000000000000028,0.022999999999999687],[0,0],[0.0470000000000006,0.11700000000000088],[0,0.09299999999999997],[-0.0470000000000006,0.045999999999999375],[-0.07000000000000028,-0.02400000000000091],[0,0]],"o":[[0.0470000000000006,0.11700000000000088],[0,0.0940000000000012],[-0.045999999999999375,0.045999999999999375],[0,0],[-0.07000000000000028,-0.022999999999999687],[-0.0470000000000006,-0.09299999999999997],[0,-0.0710000000000015],[0.0470000000000006,-0.02400000000000091],[0,0],[0.07000000000000028,0.024000000000004462]]}}},{"ty":"sh","ks":{"a":0,"k":{"c":true,"v":[[14.876,15.337],[15.051,15.547],[15.121,15.793000000000001],[15.051,16.003],[14.876,16.003],[11.934999999999999,14.322],[11.794999999999998,14.111999999999998],[11.689999999999998,13.831999999999999],[11.794999999999998,13.656999999999998],[11.934999999999999,13.656999999999998]],"i":[[0,0],[-0.04600000000000115,-0.09299999999999997],[0,-0.07099999999999973],[0.0470000000000006,-0.04699999999999882],[0.07000000000000028,0.045999999999999375],[0,0],[0.0470000000000006,0.0940000000000012],[0,0.09299999999999997],[-0.07000000000000028,0.0470000000000006],[-0.0470000000000006,-0.045999999999999375]],"o":[[0.07000000000000028,0.045999999999999375],[0.0470000000000006,0.09399999999999942],[0,0.09299999999999997],[-0.045999999999999375,0.045999999999999375],[0,0],[-0.0470000000000006,-0.045999999999999375],[-0.07000000000000028,-0.09399999999999942],[0,-0.07000000000000028],[0.0470000000000006,-0.045999999999999375],[0,0]]}}},{"ty":"sh","ks":{"a":0,"k":{"c":true,"v":[[47.057,34.597],[46.917,34.387],[46.847,34.107],[46.917,33.932],[47.057,33.932],[49.998000000000005,35.613],[50.173,35.823],[50.243,36.068],[50.173,36.278999999999996],[49.998000000000005,36.278999999999996]],"i":[[0,0],[0.046999999999997044,0.09300000000000352],[0,0.09300000000000352],[-0.046999999999997044,0.045999999999999375],[-0.046999999999997044,-0.045999999999999375],[0,0],[-0.046999999999997044,-0.0940000000000012],[0,-0.07000000000000028],[0.046999999999997044,-0.04800000000000182],[0.07000000000000028,0.045999999999999375]],"o":[[-0.046999999999997044,-0.045999999999999375],[-0.045999999999999375,-0.0940000000000012],[0,-0.07000000000000028],[0.046999999999997044,-0.045999999999999375],[0,0],[0.07000000000000028,0.045999999999999375],[0.045999999999999375,0.0940000000000012],[0,0.0940000000000012],[-0.046999999999997044,0.045999999999999375],[0,0]]}}},{"ty":"sh","ks":{"a":0,"k":{"c":true,"v":[[44.325,32.881],[44.150000000000006,32.916],[41.208000000000006,31.200999999999997],[41.03300000000001,31.025999999999996],[40.96300000000001,30.710999999999995],[41.03300000000001,30.570999999999994],[41.208000000000006,30.535999999999994],[44.150000000000006,32.251999999999995],[44.325,32.42699999999999],[44.395,32.705999999999996]],"i":[[0.046999999999997044,-0.02300000000000324],[0.07000000000000028,0.02400000000000091],[0,0],[0.07000000000000028,0.09299999999999997],[0,0.09299999999999997],[-0.045999999999999375,0.022999999999999687],[-0.045999999999999375,-0.022999999999999687],[0,0],[-0.046999999999997044,-0.09399999999999409],[0,-0.06900000000000261]],"o":[[-0.046999999999997044,0.045999999999999375],[0,0],[-0.045999999999999375,-0.02400000000000091],[-0.045999999999999375,-0.11700000000000088],[0,-0.0710000000000015],[0.07000000000000028,-0.045999999999999375],[0,0],[0.07000000000000028,0.02300000000000324],[0.045999999999999375,0.11599999999999966],[0,0.0940000000000012]]}}},{"ty":"sh","ks":{"a":0,"k":{"c":true,"v":[[88.062,58.233],[87.887,58.058],[87.81700000000001,57.743],[87.887,57.603],[88.062,57.568000000000005],[90.968,59.284000000000006],[91.143,59.49400000000001],[91.213,59.74000000000001],[91.143,59.95000000000001],[90.968,59.95000000000001]],"i":[[0,0],[0.046999999999997044,0.09399999999999409],[0,0.0940000000000012],[-0.046999999999997044,0.02400000000000091],[-0.06999999999999318,-0.02300000000000324],[0,0],[-0.046999999999997044,-0.11599999999999966],[0,-0.07100000000000506],[0.046999999999997044,-0.04700000000000415],[0.06999999999999318,0.02300000000000324]],"o":[[-0.06999999999999318,-0.02300000000000324],[-0.04600000000000648,-0.11699999999999733],[0,-0.07000000000000028],[0.046999999999997044,-0.045999999999999375],[0,0],[0.06999999999999318,0.02300000000000324],[0.04600000000000648,0.0940000000000012],[0,0.09300000000000352],[-0.046999999999997044,0.02300000000000324],[0,0]]}}},{"ty":"sh","ks":{"a":0,"k":{"c":true,"v":[[82.039,54.662],[81.96900000000001,54.382],[82.039,54.207],[82.214,54.207],[85.121,55.888],[85.29599999999999,56.098],[85.36599999999999,56.342999999999996],[85.29599999999999,56.553],[85.121,56.553],[82.214,54.873]],"i":[[0.046999999999997044,0.09300000000000352],[0,0.09300000000000352],[-0.046999999999997044,0.045999999999999375],[-0.06999999999999318,-0.045999999999999375],[0,0],[-0.046999999999997044,-0.0940000000000012],[0,-0.07000000000000028],[0.04599999999999227,-0.04700000000000415],[0.06999999999999318,0.046999999999997044],[0,0]],"o":[[-0.046999999999997044,-0.0940000000000012],[0,-0.07000000000000028],[0.04600000000000648,-0.045999999999999375],[0,0],[0.06999999999999318,0.045999999999999375],[0.04600000000000648,0.09300000000000352],[0,0.0940000000000012],[-0.046999999999997044,0.046999999999997044],[0,0],[-0.06999999999999318,-0.046999999999997044]]}}},{"ty":"sh","ks":{"a":0,"k":{"c":true,"v":[[64.46,44.086],[64.63499999999999,44.051],[67.576,45.767],[67.716,45.942],[67.821,46.221000000000004],[67.716,46.396],[67.576,46.432],[64.63499999999999,44.716],[64.46,44.541000000000004],[64.39,44.226000000000006]],"i":[[-0.046999999999997044,0.02400000000000091],[-0.06999999999999318,-0.02300000000000324],[0,0],[-0.046999999999997044,-0.09399999999999409],[0,-0.06900000000000261],[0.07000000000000739,-0.022999999999996135],[0.046999999999997044,0.022999999999996135],[0,0],[0.04599999999999227,0.09299999999999642],[0,0.0940000000000012]],"o":[[0.04600000000000648,-0.045999999999999375],[0,0],[0.046999999999997044,0.02300000000000324],[0.06999999999999318,0.11599999999999966],[0,0.0940000000000012],[-0.046999999999997044,0.046999999999997044],[0,0],[-0.06999999999999318,-0.02300000000000324],[-0.046999999999997044,-0.11699999999999733],[0,-0.06900000000000972]]}}},{"ty":"sh","ks":{"a":0,"k":{"c":true,"v":[[76.086,50.985],[76.15599999999999,50.845],[76.33099999999999,50.81],[79.27199999999999,52.525000000000006],[79.44699999999999,52.736000000000004],[79.51699999999998,52.981],[79.44699999999999,53.191],[79.27199999999999,53.191],[76.33099999999999,51.475],[76.15599999999999,51.300000000000004]],"i":[[0,0.09300000000000352],[-0.046999999999997044,0.02300000000000324],[-0.04599999999999227,-0.02400000000000091],[0,0],[-0.046999999999997044,-0.11699999999999733],[0,-0.07000000000000028],[0.046999999999997044,-0.04700000000000415],[0.06999999999999318,0.02300000000000324],[0,0],[0.06999999999999318,0.09399999999999409]],"o":[[0,-0.07099999999999795],[0.06999999999999318,-0.045999999999999375],[0,0],[0.06999999999999318,0.02400000000000091],[0.046999999999997044,0.09300000000000352],[0,0.0940000000000012],[-0.046999999999997044,0.02300000000000324],[0,0],[-0.04600000000000648,-0.02300000000000324],[-0.046999999999997044,-0.11600000000000676]]}}},{"ty":"sh","ks":{"a":0,"k":{"c":true,"v":[[73.6,49.794],[73.425,49.794],[70.484,48.113],[70.309,47.903],[70.239,47.623],[70.309,47.448],[70.484,47.448],[73.425,49.129],[73.6,49.339],[73.66999999999999,49.585]],"i":[[0.047000000000011255,-0.045999999999999375],[0.06999999999999318,0.045999999999999375],[0,0],[0.04599999999999227,0.0940000000000012],[0,0.09300000000000352],[-0.046999999999997044,0.046999999999997044],[-0.06999999999999318,-0.045999999999999375],[0,0],[-0.04599999999999227,-0.09300000000000352],[0,-0.07100000000000506]],"o":[[-0.04600000000000648,0.045999999999999375],[0,0],[-0.06999999999999318,-0.045999999999999375],[-0.046999999999997044,-0.0940000000000012],[0,-0.07000000000000028],[0.04600000000000648,-0.045999999999999375],[0,0],[0.06999999999999318,0.045999999999999375],[0.046999999999997044,0.0940000000000012],[1.4210854715202004e-14,0.09199999999999875]]}}},{"ty":"sh","ks":{"a":0,"k":{"c":true,"v":[[101.579,80.54],[101.64899999999999,80.33000000000001],[101.82399999999998,80.36500000000001],[101.96399999999998,80.54],[102.06899999999999,80.82000000000001],[102.06899999999999,84.742],[101.96399999999998,84.917],[101.82399999999998,84.917],[101.64899999999999,84.70700000000001],[101.579,84.462]],"i":[[0,0],[-0.046999999999997044,0.046999999999997044],[-0.06999999999999318,-0.022999999999996135],[-0.046999999999997044,-0.06999999999999318],[0,-0.09300000000000352],[0,0],[0.07000000000000739,-0.04599999999999227],[0.046999999999997044,0.046999999999997044],[0.04599999999999227,0.11699999999999022],[0,0.07000000000000739]],"o":[[0,-0.09300000000000352],[0.04600000000000648,0],[0.04600000000000648,0.046999999999997044],[0.06999999999999318,0.09399999999999409],[0,0],[0,0.07099999999999795],[-0.04600000000000648,0.046999999999997044],[-0.06999999999999318,-0.022999999999996135],[-0.046999999999997044,-0.09300000000000352],[0,0]]}}},{"ty":"sh","ks":{"a":0,"k":{"c":true,"v":[[101.579,72.696],[101.64899999999999,72.485],[101.82399999999998,72.521],[101.96399999999998,72.696],[102.06899999999999,72.976],[102.06899999999999,76.899],[101.96399999999998,77.074],[101.82399999999998,77.074],[101.64899999999999,76.863],[101.579,76.618]],"i":[[0,0],[-0.046999999999997044,0.04800000000000182],[-0.06999999999999318,-0.02400000000000091],[-0.046999999999997044,-0.07099999999999795],[0,-0.09300000000000352],[0,0],[0.07000000000000739,-0.02400000000000091],[0.046999999999997044,0.04600000000000648],[0.04599999999999227,0.11700000000000443],[0,0.0940000000000083]],"o":[[0,-0.09399999999999409],[0.04600000000000648,0],[0.04600000000000648,0.04600000000000648],[0.06999999999999318,0.09300000000000352],[0,0],[0,0.09300000000000352],[-0.04600000000000648,0.04600000000000648],[-0.06999999999999318,-0.02400000000000091],[-0.046999999999997044,-0.06999999999999318],[0,0]]}}},{"ty":"sh","ks":{"a":0,"k":{"c":true,"v":[[99.618,64.607],[99.79299999999999,64.712],[101.859,68.879],[101.824,69.12400000000001],[101.684,69.159],[101.509,69.055],[101.404,68.775],[99.65299999999999,65.27300000000001],[99.478,64.99300000000001],[99.478,64.74700000000001]],"i":[[-0.06999999999999318,0.02400000000000091],[-0.06999999999999318,-0.06900000000000261],[-0.3269999999999982,-1.6809999999999974],[0.046999999999997044,-0.07000000000000739],[0.046999999999997044,0.02400000000000091],[0.046999999999997044,0.06900000000000261],[0,0.09300000000000352],[0.8870000000000005,0.9339999999999975],[0.04599999999999227,0.09300000000000352],[-0.022999999999996135,0.07099999999999795]],"o":[[0.046999999999997044,0],[1.051000000000002,1.0969999999999942],[0.022999999999996135,0.09300000000000352],[-0.046999999999997044,0.04600000000000648],[-0.06999999999999318,0],[-0.06999999999999318,-0.09399999999999409],[-0.28000000000000114,-1.4009999999999962],[-0.06999999999999318,-0.09300000000000352],[-0.022999999999996135,-0.09399999999999409],[0.023000000000010346,-0.07000000000000739]]}}},{"ty":"sh","ks":{"a":0,"k":{"c":true,"v":[[96.817,62.646],[96.99199999999999,62.856],[97.06199999999998,63.102000000000004],[96.99199999999999,63.312000000000005],[96.817,63.312000000000005],[93.91099999999999,61.63100000000001],[93.73599999999999,61.42100000000001],[93.666,61.142],[93.73599999999999,60.967000000000006],[93.91099999999999,60.967000000000006]],"i":[[0,0],[-0.04599999999999227,-0.09300000000000352],[0,-0.07100000000000506],[0.046999999999997044,-0.04700000000000415],[0.06999999999999318,0.045999999999999375],[0,0],[0.046999999999997044,0.0940000000000012],[0,0.09200000000000585],[-0.04599999999999227,0.045999999999999375],[-0.06999999999999318,-0.046999999999997044]],"o":[[0.06999999999999318,0.045999999999999375],[0.046999999999997044,0.0940000000000012],[0,0.09300000000000352],[-0.04600000000000648,0.045999999999999375],[0,0],[-0.06999999999999318,-0.045999999999999375],[-0.04600000000000648,-0.09300000000000352],[0,-0.07099999999999795],[0.046999999999997044,-0.046999999999997044],[0,0]]}}},{"ty":"sh","ks":{"a":0,"k":{"c":true,"v":[[71.464,94.302],[71.324,94.09200000000001],[71.359,93.81200000000001],[71.56899999999999,93.67200000000001],[71.814,93.70700000000001],[75.45599999999999,95.808],[75.63099999999999,96.019],[75.59599999999999,96.26400000000001],[75.386,96.43900000000001],[75.106,96.40400000000001]],"i":[[0,0],[0.022999999999996135,0.06999999999999318],[-0.06999999999999318,0.09300000000000352],[-0.09299999999998931,0],[-0.09300000000000352,-0.06999999999999318],[0,0],[-0.04599999999999227,-0.09399999999999409],[0.046999999999997044,-0.09300000000000352],[0.06999999999999318,-0.022999999999996135],[0.09300000000000352,0.046999999999997044]],"o":[[-0.06999999999999318,-0.06999999999999318],[-0.04600000000000648,-0.09399999999999409],[0.04600000000000648,-0.09300000000000352],[0.06999999999999318,-0.046999999999997044],[0,0],[0.06999999999999318,0.046999999999997044],[0.02400000000000091,0.06999999999999318],[-0.06999999999999318,0.09399999999999409],[-0.09300000000000352,0.022999999999996135],[0,0]]}}},{"ty":"sh","ks":{"a":0,"k":{"c":true,"v":[[68.172,91.606],[68.347,91.81599999999999],[68.312,92.06099999999999],[68.102,92.23599999999999],[67.822,92.201],[64.18,90.1],[64.04,89.89],[64.075,89.61],[64.285,89.47],[64.53,89.506]],"i":[[0,0],[-0.04599999999999227,-0.09399999999999409],[0.046999999999997044,-0.09300000000000352],[0.06999999999999318,-0.022999999999996135],[0.09300000000000352,0.046999999999997044],[0,0],[0.022999999999996135,0.06999999999999318],[-0.06999999999999318,0.09300000000000352],[-0.09299999999998931,0],[-0.09300000000000352,-0.07099999999999795]],"o":[[0.06999999999999318,0.04600000000000648],[0.022999999999996135,0.06999999999999318],[-0.06999999999999318,0.09399999999999409],[-0.09300000000000352,0.022999999999996135],[0,0],[-0.06999999999999318,-0.06999999999999318],[-0.046999999999997044,-0.09399999999999409],[0.046999999999997044,-0.09300000000000352],[0.06999999999999318,-0.04600000000000648],[0,0]]}}},{"ty":"sh","ks":{"a":0,"k":{"c":true,"v":[[92.474,99.765],[92.71900000000001,99.905],[92.789,100.15],[92.684,100.396],[90.583,103.687],[90.408,103.898],[90.128,103.93299999999999],[89.918,103.758],[89.918,103.47699999999999],[92.22900000000001,99.871]],"i":[[-0.09300000000000352,0],[-0.07000000000000739,-0.09399999999999409],[0,-0.11599999999999966],[0.07000000000000739,-0.07099999999999795],[0.44299999999999784,-1.3529999999999944],[0.06999999999999318,-0.046999999999997044],[0.09300000000000352,0.023000000000010346],[0.046999999999997044,0.06999999999999318],[-0.046999999999997044,0.0940000000000083],[-1.0740000000000123,0.9099999999999966]],"o":[[0.09300000000000352,0],[0.04600000000000648,0.04600000000000648],[0,0.09399999999999409],[-0.9569999999999936,0.8400000000000034],[-0.04600000000000648,0.09399999999999409],[-0.09300000000000352,0.04600000000000648],[-0.09300000000000352,-0.046999999999997044],[-0.046999999999997044,-0.09399999999999409],[0.46699999999999875,-1.492999999999995],[0.06999999999999318,-0.07099999999999795]]}}},{"ty":"sh","ks":{"a":0,"k":{"c":true,"v":[[78.748,98.504],[78.608,98.29400000000001],[78.643,98.01400000000001],[78.853,97.87400000000001],[79.098,97.91000000000001],[82.74,100.01100000000001],[82.91499999999999,100.221],[82.88,100.46600000000001],[82.67,100.641],[82.39,100.60600000000001]],"i":[[0,0],[0.022999999999996135,0.06999999999999318],[-0.06999999999999318,0.09300000000000352],[-0.09299999999998931,0],[-0.09300000000000352,-0.07099999999999795],[0,0],[-0.046999999999997044,-0.09399999999999409],[0.046999999999997044,-0.09300000000000352],[0.06999999999999318,-0.022999999999996135],[0.09300000000000352,0.046999999999997044]],"o":[[-0.06999999999999318,-0.06999999999999318],[-0.04600000000000648,-0.09399999999999409],[0.04600000000000648,-0.09300000000000352],[0.06999999999999318,-0.04600000000000648],[0,0],[0.06999999999999318,0.04600000000000648],[0.022999999999996135,0.06999999999999318],[-0.06999999999999318,0.09399999999999409],[-0.09300000000000352,0.022999999999996135],[0,0]]}}},{"ty":"sh","ks":{"a":0,"k":{"c":true,"v":[[89.358,107.329],[89.60300000000001,107.22399999999999],[89.84800000000001,107.329],[89.95300000000002,107.57499999999999],[90.58300000000001,111.70599999999999],[90.54800000000002,111.95199999999998],[90.37300000000002,112.16199999999998],[90.09300000000002,112.12699999999998],[89.91800000000002,111.95199999999998],[89.25300000000001,107.57499999999999]],"i":[[-0.07000000000000739,0.07000000000000739],[-0.09300000000000352,0],[-0.07000000000000739,-0.07000000000000739],[0,-0.09399999999999409],[-0.44299999999999784,-1.1899999999999977],[0.046999999999997044,-0.09399999999999409],[0.06999999999999318,-0.046999999999997044],[0.09300000000000352,0.046999999999997044],[0.022999999999996135,0.06999999999999318],[-0.022999999999996135,1.6569999999999965]],"o":[[0.06999999999999318,-0.06999999999999318],[0.09300000000000352,0],[0.06999999999999318,0.07099999999999795],[-0.022999999999996135,1.563999999999993],[0.022999999999996135,0.07099999999999795],[-0.046999999999997044,0.09300000000000352],[-0.09300000000000352,0.022999999999996135],[-0.09300000000000352,-0.046999999999997044],[-0.46699999999999875,-1.2609999999999957],[-1.4210854715202004e-14,-0.09499999999998465]]}}},{"ty":"sh","ks":{"a":0,"k":{"c":true,"v":[[108.653,96.999],[108.933,97.06899999999999],[109.03800000000001,97.31499999999998],[108.96800000000002,97.59499999999998],[108.72300000000001,97.69899999999998],[104.59100000000001,98.04899999999998],[104.34500000000001,97.97899999999998],[104.20500000000001,97.73399999999998],[104.31000000000002,97.48799999999999],[104.55600000000001,97.34799999999998]],"i":[[-1.331000000000003,0.14000000000000057],[-0.09300000000000352,-0.06999999999999318],[0,-0.09399999999999409],[0.06999999999999318,-0.09300000000000352],[0.09300000000000352,0],[1.4230000000000018,-0.09299999999998931],[0.06999999999999318,0.046999999999997044],[0,0.09300000000000352],[-0.07000000000000739,0.07099999999999795],[-0.11699999999999022,0]],"o":[[0.09300000000000352,-0.022999999999996135],[0.06999999999999318,0.06999999999999318],[0.022999999999996135,0.09300000000000352],[-0.06999999999999318,0.06999999999999318],[-1.331000000000003,0.14000000000000057],[-0.09399999999999409,0],[-0.09300000000000352,-0.06999999999999318],[0,-0.09399999999999409],[0.046999999999997044,-0.09300000000000352],[1.3999999999999915,-0.09199999999998454]]}}},{"ty":"sh","ks":{"a":0,"k":{"c":true,"v":[[117.162,96.053],[117.12700000000001,96.333],[116.882,96.473],[112.855,97.209],[112.574,97.138],[112.434,96.92800000000001],[112.50399999999999,96.64800000000001],[112.74999999999999,96.50800000000001],[116.74199999999999,95.772],[117.02199999999999,95.843]],"i":[[-0.023000000000010346,-0.09399999999999409],[0.046999999999997044,-0.09300000000000352],[0.09300000000000352,-0.02400000000000091],[1.4000000000000057,-0.21099999999999852],[0.07100000000001216,0.07099999999999795],[0.02400000000000091,0.09399999999999409],[-0.06999999999999318,0.07000000000000739],[-0.11699999999999022,0.022999999999996135],[-1.284000000000006,0.2810000000000059],[-0.09300000000000352,-0.07099999999999795]],"o":[[0.022999999999996135,0.09399999999999409],[-0.06999999999999318,0.06999999999999318],[-1.284000000000006,0.28000000000000114],[-0.11700000000000443,0.022999999999996135],[-0.06999999999999318,-0.04600000000000648],[-0.022999999999996135,-0.11700000000000443],[0.046999999999997044,-0.06999999999999318],[1.3769999999999953,-0.21099999999999852],[0.09300000000000352,-0.022999999999996135],[0.07000000000000739,0.046999999999997044]]}}},{"ty":"sh","ks":{"a":0,"k":{"c":true,"v":[[120.664,95.423],[120.523,95.21300000000001],[120.559,94.933],[120.76899999999999,94.793],[124.65599999999999,93.46300000000001],[124.901,93.46300000000001],[125.11099999999999,93.673],[125.076,93.918],[124.901,94.129],[120.944,95.459]],"i":[[0.09300000000000352,0.046999999999997044],[0.02400000000000091,0.06999999999999318],[-0.07099999999999795,0.09300000000000352],[-0.09399999999999409,0.022999999999996135],[-1.2139999999999986,0.46699999999999875],[-0.09300000000000352,-0.046999999999997044],[-0.046999999999997044,-0.09399999999999409],[0.046999999999997044,-0.09300000000000352],[0.06999999999999318,-0.046999999999997044],[1.3999999999999915,-0.39699999999999136]],"o":[[-0.06999999999999318,-0.06999999999999318],[-0.04600000000000648,-0.09300000000000352],[0.04600000000000648,-0.06999999999999318],[1.3769999999999953,-0.4210000000000065],[0.06999999999999318,-0.046999999999997044],[0.09300000000000352,0.04600000000000648],[0.022999999999996135,0.06999999999999318],[-0.04600000000000648,0.09399999999999409],[-1.2379999999999995,0.4899999999999949],[-0.09300000000000352,0.022999999999996135]]}}},{"ty":"sh","ks":{"a":0,"k":{"c":true,"v":[[92.404,115.523],[92.264,115.277],[92.369,115.032],[92.614,114.892],[92.85900000000001,114.997],[96.11600000000001,116.852],[96.32600000000001,116.923],[96.536,117.063],[96.571,117.343],[96.396,117.553],[96.151,117.588],[95.871,117.518]],"i":[[0.9339999999999975,0.8170000000000073],[0,0.09399999999999409],[-0.07000000000000739,0.07000000000000739],[-0.11700000000000443,0],[-0.09300000000000352,-0.07000000000000739],[-1.308000000000007,-0.4900000000000091],[-0.07799999999998875,-0.03999999999999204],[-0.06999999999999318,-0.09399999999999409],[0.023000000000010346,-0.09300000000000352],[0.09300000000000352,-0.07099999999999795],[0.07000000000000739,0.023000000000010346],[0.07000000000000739,0.0239999999999867]],"o":[[-0.09300000000000352,-0.07099999999999795],[0,-0.09300000000000352],[0.04600000000000648,-0.09399999999999409],[0.06999999999999318,0],[0.8640000000000043,0.7459999999999951],[0.06199999999999761,0.007999999999995566],[0.06999999999999318,0],[0.046999999999997044,0.09300000000000352],[-0.02400000000000091,0.06999999999999318],[-0.09300000000000352,0.04600000000000648],[-0.11700000000000443,-0.022999999999996135],[-1.3769999999999953,-0.5130000000000052]]}}},{"ty":"sh","ks":{"a":0,"k":{"c":true,"v":[[100.423,97.524],[100.669,97.629],[100.774,97.87400000000001],[100.70400000000001,98.12],[100.45800000000001,98.224],[98.53300000000002,98.26],[96.32700000000001,98.61],[96.04700000000001,98.574],[95.90700000000001,98.364],[95.94200000000001,98.08500000000001],[96.152,97.94500000000001],[98.463,97.56],[98.49799999999999,97.56]],"i":[[-0.6299999999999955,0.02400000000000091],[-0.06999999999999318,-0.06900000000000261],[0,-0.11599999999999966],[0.04599999999999227,-0.07099999999999795],[0.09399999999999409,0],[0.6529999999999916,0],[0.6770000000000067,-0.1629999999999967],[0.07000000000000739,0.04800000000000182],[0,0.07099999999999795],[-0.06999999999999318,0.06900000000000261],[-0.09299999999998931,0],[-0.8399999999999892,0.07000000000000739],[0,0]],"o":[[0.09399999999999409,0],[0.06999999999999318,0.04600000000000648],[0,0.09399999999999409],[-0.06999999999999318,0.06999999999999318],[-0.6299999999999955,0.02400000000000091],[-0.7939999999999969,0.06999999999999318],[-0.11700000000000443,0.022999999999996135],[-0.09300000000000352,-0.06999999999999318],[-0.046999999999997044,-0.11599999999999966],[0.046999999999997044,-0.09399999999999409],[0.7000000000000028,-0.1869999999999976],[0,0],[0.6530000000000058,-0.0010000000000047748]]}}},{"ty":"sh","ks":{"a":0,"k":{"c":true,"v":[[100.178,117.869],[100.458,117.798],[104.591,118.253],[104.836,118.393],[104.90599999999999,118.638],[104.80099999999999,118.88300000000001],[104.55499999999999,118.95400000000001],[100.353,118.49900000000001],[100.10799999999999,118.35900000000001],[100.038,118.114]],"i":[[-0.06999999999999318,0.046999999999997044],[-0.11700000000000443,-0.022999999999996135],[-1.4939999999999998,-0.09300000000000352],[-0.07000000000000739,-0.09399999999999409],[0,-0.11700000000000443],[0.07000000000000739,-0.07000000000000739],[0.09399999999999409,0],[1.2839999999999918,0.20900000000000318],[0.047000000000011255,0.07000000000000739],[-0.023000000000010346,0.0940000000000083]],"o":[[0.06999999999999318,-0.07099999999999795],[1.2609999999999957,0.20999999999999375],[0.09300000000000352,0],[0.046999999999997044,0.04600000000000648],[0,0.09399999999999409],[-0.06999999999999318,0.046999999999997044],[-1.516999999999996,-0.09399999999999409],[-0.11700000000000443,-0.022999999999996135],[-0.06999999999999318,-0.06999999999999318],[0.023000000000010346,-0.11700000000000443]]}}},{"ty":"sh","ks":{"a":0,"k":{"c":true,"v":[[101.579,127.569],[101.64899999999999,127.358],[101.82399999999998,127.358],[101.96399999999998,127.569],[102.06899999999999,127.849],[102.06899999999999,131.77100000000002],[101.96399999999998,131.94600000000003],[101.82399999999998,131.94600000000003],[101.64899999999999,131.73600000000002],[101.579,131.49]],"i":[[0,0],[-0.046999999999997044,0.046999999999997044],[-0.06999999999999318,-0.022999999999996135],[-0.046999999999997044,-0.09399999999999409],[0,-0.09300000000000352],[0,0],[0.07000000000000739,-0.047000000000025466],[0.046999999999997044,0.04599999999999227],[0.04599999999999227,0.11600000000001387],[0,0.07099999999999795]],"o":[[0,-0.09399999999999409],[0.04600000000000648,-0.022999999999996135],[0.04600000000000648,0.046999999999997044],[0.06999999999999318,0.09300000000000352],[0,0],[0,0.06999999999999318],[-0.04600000000000648,0.04599999999999227],[-0.06999999999999318,-0.022999999999996135],[-0.046999999999997044,-0.09399999999999409],[0,0]]}}},{"ty":"sh","ks":{"a":0,"k":{"c":true,"v":[[108.477,118.955],[108.372,118.709],[108.477,118.464],[108.723,118.359],[109.948,118.359],[112.67999999999999,118.18299999999999],[112.96,118.288],[113.065,118.499],[112.995,118.779],[112.75,118.883],[109.983,119.05799999999999],[109.94800000000001,119.05799999999999],[108.72300000000001,119.05799999999999]],"i":[[0.06999999999999318,0.07000000000000739],[0,0.09399999999999409],[-0.07000000000000739,0.07000000000000739],[-0.09399999999999409,0],[-0.4199999999999875,0],[-0.9569999999999936,0.0940000000000083],[-0.09300000000000352,-0.06900000000000261],[0,-0.09399999999999409],[0.046999999999997044,-0.09300000000000352],[0.09300000000000352,0],[0.887999999999991,-0.022999999999996135],[0,0],[0.39699999999999136,0]],"o":[[-0.06999999999999318,-0.07099999999999795],[0,-0.09300000000000352],[0.06999999999999318,-0.06999999999999318],[0.39700000000000557,0],[0.8640000000000043,-0.02400000000000091],[0.09300000000000352,0],[0.06999999999999318,0.046999999999997044],[0,0.09300000000000352],[-0.06999999999999318,0.06999999999999318],[-0.9579999999999984,0.09399999999999409],[0,0],[-0.4200000000000017,0],[-0.0940000000000083,0.0020000000000095497]]}}},{"ty":"sh","ks":{"a":0,"k":{"c":true,"v":[[116.917,118.254],[116.672,118.21900000000001],[116.496,117.974],[116.567,117.729],[116.77699999999999,117.553],[120.80399999999999,116.643],[121.04899999999999,116.678],[121.22399999999999,116.88799999999999],[121.189,117.133],[120.979,117.30799999999999]],"i":[[1.2830000000000013,-0.257000000000005],[0.07000000000000739,0.046999999999997044],[0.02400000000000091,0.09300000000000352],[-0.07099999999999795,0.07000000000000739],[-0.09399999999999409,0.02400000000000091],[-1.4009999999999962,0.3499999999999943],[-0.09300000000000352,-0.07099999999999795],[-0.022999999999996135,-0.09399999999999409],[0.046999999999997044,-0.09300000000000352],[0.06999999999999318,-0.022999999999996135]],"o":[[-0.09300000000000352,0.02400000000000091],[-0.09399999999999409,-0.06999999999999318],[-0.022999999999996135,-0.09399999999999409],[0.04600000000000648,-0.09399999999999409],[1.2830000000000013,-0.257000000000005],[0.06999999999999318,-0.046999999999997044],[0.09300000000000352,0.04600000000000648],[0.022999999999996135,0.06999999999999318],[-0.06999999999999318,0.09399999999999409],[-1.4239999999999924,0.3750000000000142]]}}},{"ty":"sh","ks":{"a":0,"k":{"c":true,"v":[[41.734,120.425],[41.909,120.425],[44.815,122.106],[44.989999999999995,122.31599999999999],[45.059999999999995,122.59599999999999],[44.989999999999995,122.77099999999999],[44.815,122.77099999999999],[41.909,121.08999999999999],[41.734,120.88],[41.664,120.634]],"i":[[-0.04700000000000415,0.04600000000000648],[-0.07000000000000028,-0.04600000000000648],[0,0],[-0.045999999999999375,-0.11699999999999022],[0,-0.09300000000000352],[0.046999999999997044,-0.046999999999997044],[0.07000000000000028,0.022999999999996135],[0,0],[0.046999999999997044,0.09299999999998931],[0,0.07099999999999795]],"o":[[0.046999999999997044,-0.04600000000000648],[0,0],[0.07000000000000028,0.022999999999996135],[0.046999999999997044,0.09399999999999409],[0,0.06999999999999318],[-0.045999999999999375,0.022999999999996135],[0,0],[-0.07000000000000028,-0.04600000000000648],[-0.045999999999999375,-0.09399999999999409],[0,-0.09199999999999875]]}}},{"ty":"sh","ks":{"a":0,"k":{"c":true,"v":[[35.816,117.239],[35.886,117.02900000000001],[36.061,117.02900000000001],[38.967,118.70900000000002],[39.141999999999996,118.91900000000001],[39.211999999999996,119.19900000000001],[39.141999999999996,119.37400000000001],[38.967,119.37400000000001],[36.061,117.694],[35.886,117.483]],"i":[[0,0.06999999999999318],[-0.046999999999997044,0.04599999999999227],[-0.07000000000000028,-0.046999999999997044],[0,0],[-0.046999999999997044,-0.09299999999998931],[0,-0.09300000000000352],[0.046999999999997044,-0.04599999999999227],[0.07000000000000028,0.04600000000000648],[0,0],[0.046999999999997044,0.09399999999999409]],"o":[[0,-0.09399999999999409],[0.046999999999997044,-0.046999999999997044],[0,0],[0.07000000000000028,0.046999999999997044],[0.045999999999999375,0.09399999999999409],[0,0.07099999999999795],[-0.046999999999997044,0.04600000000000648],[0,0],[-0.07000000000000028,-0.046999999999997044],[-0.04700000000000415,-0.09199999999999875]]}}},{"ty":"sh","ks":{"a":0,"k":{"c":true,"v":[[33.12,115.348],[33.294999999999995,115.55799999999999],[33.364999999999995,115.838],[33.294999999999995,116.01299999999999],[33.12,116.01299999999999],[30.179,114.332],[30.038999999999998,114.122],[29.933999999999997,113.877],[30.038999999999998,113.667],[30.179,113.667]],"i":[[0,0],[-0.046999999999997044,-0.11599999999999966],[0,-0.09300000000000352],[0.045999999999999375,-0.04599999999999227],[0.07000000000000028,0.022999999999996135],[0,0],[0.0470000000000006,0.09399999999999409],[0,0.07000000000000739],[-0.07000000000000028,0.046999999999997044],[-0.0470000000000006,-0.046999999999997044]],"o":[[0.07000000000000028,0.022999999999996135],[0.045999999999999375,0.09399999999999409],[0,0.06999999999999318],[-0.046999999999997044,0.022999999999996135],[0,0],[-0.045999999999999375,-0.04600000000000648],[-0.07000000000000028,-0.09300000000000352],[0,-0.09399999999999409],[0.045999999999999375,-0.046999999999997044],[0,0]]}}},{"ty":"sh","ks":{"a":0,"k":{"c":true,"v":[[18.307,106.908],[18.482,106.908],[21.423,108.589],[21.598,108.79899999999999],[21.668,109.079],[21.598,109.25399999999999],[21.423,109.25399999999999],[18.482,107.57399999999998],[18.307,107.36399999999999],[18.237,107.118]],"i":[[-0.046999999999997044,0.046999999999997044],[-0.07000000000000028,-0.04600000000000648],[0,0],[-0.07000000000000028,-0.11699999999999022],[0,-0.09300000000000352],[0.0470000000000006,-0.04599999999999227],[0.0470000000000006,0.02400000000000091],[0,0],[0.045999999999999375,0.09299999999998931],[0,0.07099999999999795]],"o":[[0.045999999999999375,-0.04600000000000648],[0,0],[0.0470000000000006,0.022999999999996135],[0.0470000000000006,0.09300000000000352],[0,0.06999999999999318],[-0.07000000000000028,0.02400000000000091],[0,0],[-0.07000000000000028,-0.046999999999997044],[-0.0470000000000006,-0.09399999999999409],[0,-0.09299999999998931]]}}},{"ty":"sh","ks":{"a":0,"k":{"c":true,"v":[[12.459,103.512],[12.634,103.512],[15.540000000000001,105.19200000000001],[15.715000000000002,105.402],[15.785000000000002,105.682],[15.715000000000002,105.857],[15.540000000000001,105.857],[12.634,104.17699999999999],[12.459,103.966],[12.389,103.72099999999999]],"i":[[-0.04699999999999882,0.046999999999997044],[-0.07000000000000028,-0.046999999999997044],[0,0],[-0.0470000000000006,-0.09299999999998931],[0,-0.09300000000000352],[0.0470000000000006,-0.04599999999999227],[0.07000000000000028,0.046999999999997044],[0,0],[0.04600000000000115,0.09399999999999409],[0,0.07000000000000739]],"o":[[0.045999999999999375,-0.046999999999997044],[0,0],[0.07000000000000028,0.04600000000000648],[0.0470000000000006,0.09399999999999409],[0,0.06999999999999318],[-0.0470000000000006,0.046999999999997044],[0,0],[-0.07000000000000028,-0.046999999999997044],[-0.0470000000000006,-0.09300000000000352],[0,-0.09299999999998931]]}}},{"ty":"sh","ks":{"a":0,"k":{"c":true,"v":[[9.693,101.831],[9.868,102.041],[9.938,102.321],[9.868,102.496],[9.693,102.496],[6.786999999999999,100.78],[6.611999999999999,100.605],[6.541999999999999,100.325],[6.611999999999999,100.15],[6.786999999999999,100.11500000000001]],"i":[[0,0],[-0.04600000000000115,-0.11599999999999966],[0,-0.09300000000000352],[0.0470000000000006,-0.04599999999999227],[0.07000000000000028,0.022999999999996135],[0,0],[0.04699999999999971,0.09399999999999409],[0,0.07000000000000739],[-0.0470000000000006,0.02400000000000091],[-0.0699999999999994,-0.023000000000010346]],"o":[[0.07000000000000028,0.022999999999996135],[0.0470000000000006,0.09399999999999409],[0,0.06999999999999318],[-0.045999999999999375,0.022999999999996135],[0,0],[-0.07000000000000028,-0.022999999999996135],[-0.04699999999999971,-0.11700000000000443],[0,-0.09300000000000352],[0.04699999999999971,-0.04600000000000648],[0,0]]}}},{"ty":"sh","ks":{"a":0,"k":{"c":true,"v":[[24.155,110.725],[24.085,110.47999999999999],[24.155,110.26899999999999],[24.330000000000002,110.26899999999999],[27.271,111.94999999999999],[27.446,112.15999999999998],[27.516000000000002,112.44099999999999],[27.446,112.61599999999999],[27.271,112.61599999999999],[24.330000000000002,110.93499999999999]],"i":[[0.0470000000000006,0.0940000000000083],[0,0.07000000000000739],[-0.0470000000000006,0.046999999999997044],[-0.07000000000000028,-0.04600000000000648],[0,0],[-0.0470000000000006,-0.09299999999998931],[0,-0.0940000000000083],[0.0470000000000006,-0.046999999999997044],[0.07000000000000028,0.04600000000000648],[0,0]],"o":[[-0.045999999999999375,-0.09300000000000352],[0,-0.09399999999999409],[0.0470000000000006,-0.04600000000000648],[0,0],[0.07000000000000028,0.046999999999997044],[0.0470000000000006,0.09399999999999409],[0,0.06999999999999318],[-0.0470000000000006,0.04600000000000648],[0,0],[-0.07000000000000028,-0.04599999999999227]]}}},{"ty":"sh","ks":{"a":0,"k":{"c":true,"v":[[59.254,130.646],[59.324,130.43599999999998],[59.498999999999995,130.43599999999998],[62.404999999999994,132.11599999999999],[62.57999999999999,132.326],[62.64999999999999,132.606],[62.57999999999999,132.781],[62.404999999999994,132.781],[59.498999999999995,131.101],[59.324,130.89]],"i":[[0,0.0700000000000216],[-0.046999999999997044,0.04600000000002069],[-0.07000000000000028,-0.046999999999997044],[0,0],[-0.046999999999997044,-0.09300000000001774],[0,-0.09299999999998931],[0.046999999999997044,-0.04600000000002069],[0.07000000000000028,0.04599999999999227],[0,0],[0.046999999999997044,0.09400000000002251]],"o":[[0,-0.09399999999999409],[0.046999999999997044,-0.046999999999997044],[0,0],[0.07000000000000028,0.046999999999997044],[0.045999999999999375,0.09399999999999409],[0,0.07099999999999795],[-0.046999999999997044,0.04599999999999227],[0,0],[-0.07000000000000028,-0.046999999999997044],[-0.046999999999997044,-0.09199999999998454]]}}},{"ty":"sh","ks":{"a":0,"k":{"c":true,"v":[[56.557,128.755],[56.732,128.965],[56.802,129.245],[56.732,129.42000000000002],[56.557,129.42000000000002],[53.616,127.73900000000002],[53.476,127.52900000000002],[53.371,127.28400000000002],[53.476,127.07400000000003],[53.616,127.07400000000003]],"i":[[0,0],[-0.046999999999997044,-0.11600000000001387],[0,-0.09299999999998931],[0.045999999999999375,-0.04600000000002069],[0.07000000000000028,0.022999999999996135],[0,0],[0.046999999999997044,0.09399999999999409],[0,0.07000000000000739],[-0.07000000000000028,0.046999999999997044],[-0.046999999999997044,-0.046999999999997044]],"o":[[0.07000000000000028,0.022999999999996135],[0.045999999999999375,0.09399999999999409],[0,0.06999999999999318],[-0.046999999999997044,0.022999999999996135],[0,0],[-0.045999999999999375,-0.04600000000000648],[-0.07000000000000028,-0.09300000000000352],[0,-0.09399999999999409],[0.045999999999999375,-0.046999999999997044],[0,0]]}}},{"ty":"sh","ks":{"a":0,"k":{"c":true,"v":[[47.593,124.132],[47.523,123.887],[47.593,123.676],[47.768,123.676],[50.709,125.357],[50.884,125.567],[50.954,125.848],[50.884,126.023],[50.709,126.023],[47.768,124.342]],"i":[[0.046999999999997044,0.09399999999999409],[0,0.07000000000000739],[-0.046999999999997044,0.046999999999997044],[-0.07000000000000028,-0.04600000000000648],[0,0],[-0.046999999999997044,-0.09299999999998931],[0,-0.0940000000000083],[0.046999999999997044,-0.046999999999997044],[0.07000000000000028,0.04600000000000648],[0,0]],"o":[[-0.045999999999999375,-0.09300000000000352],[0,-0.09399999999999409],[0.046999999999997044,-0.04600000000000648],[0,0],[0.07000000000000028,0.046999999999997044],[0.046999999999997044,0.09399999999999409],[0,0.06999999999999318],[-0.046999999999997044,0.04600000000000648],[0,0],[-0.07000000000000028,-0.04599999999999227]]}}},{"ty":"sh","ks":{"a":0,"k":{"c":true,"v":[[17.187,62.191],[17.362000000000002,62.401],[17.327,62.646],[17.117,62.821],[16.837,62.786],[13.195,60.685],[13.055,60.475],[13.09,60.195],[13.3,60.055],[13.545,60.091]],"i":[[0,0],[-0.0470000000000006,-0.0940000000000012],[0.0470000000000006,-0.09299999999999642],[0.07000000000000028,-0.022999999999996135],[0.09299999999999997,0.046999999999997044],[0,0],[0.022999999999999687,0.07000000000000028],[-0.07000000000000028,0.09300000000000352],[-0.0940000000000012,0],[-0.09299999999999997,-0.07099999999999795]],"o":[[0.07000000000000028,0.045999999999999375],[0.022999999999999687,0.07000000000000028],[-0.07000000000000028,0.0940000000000012],[-0.09299999999999997,0.02300000000000324],[0,0],[-0.07000000000000028,-0.07000000000000028],[-0.0470000000000006,-0.0940000000000012],[0.0470000000000006,-0.09300000000000352],[0.07000000000000028,-0.045999999999999375],[0,0]]}}},{"ty":"sh","ks":{"a":0,"k":{"c":true,"v":[[27.762,69.089],[27.622,68.879],[27.657,68.599],[27.867,68.459],[28.112000000000002,68.495],[31.754,70.596],[31.929000000000002,70.806],[31.894000000000002,71.051],[31.684,71.226],[31.404,71.191]],"i":[[0,0],[0.022999999999999687,0.06999999999999318],[-0.07000000000000028,0.09300000000000352],[-0.09299999999999997,0],[-0.09299999999999997,-0.07099999999999795],[0,0],[-0.045999999999999375,-0.09399999999999409],[0.0470000000000006,-0.09300000000000352],[0.07000000000000028,-0.022999999999996135],[0.09299999999999997,0.046999999999997044]],"o":[[-0.07000000000000028,-0.06999999999999318],[-0.0470000000000006,-0.09399999999999409],[0.0470000000000006,-0.09300000000000352],[0.07000000000000028,-0.04600000000000648],[0,0],[0.07000000000000028,0.04600000000000648],[0.022999999999999687,0.06999999999999318],[-0.07000000000000028,0.09399999999999409],[-0.09299999999999997,0.022999999999996135],[0,0]]}}},{"ty":"sh","ks":{"a":0,"k":{"c":true,"v":[[24.47,66.393],[24.645,66.603],[24.61,66.848],[24.4,67.023],[24.119999999999997,66.988],[20.477999999999998,64.887],[20.337999999999997,64.677],[20.372999999999998,64.397],[20.583,64.257],[20.828,64.293]],"i":[[0,0],[-0.0470000000000006,-0.09399999999999409],[0.0470000000000006,-0.09300000000000352],[0.07000000000000028,-0.022999999999996135],[0.09299999999999997,0.046999999999997044],[0,0],[0.02400000000000091,0.06999999999999318],[-0.07000000000000028,0.09300000000000352],[-0.09299999999999997,0],[-0.0940000000000012,-0.07099999999999795]],"o":[[0.07000000000000028,0.04600000000000648],[0.022999999999999687,0.06999999999999318],[-0.07000000000000028,0.09399999999999409],[-0.09299999999999997,0.022999999999996135],[0,0],[-0.07000000000000028,-0.06999999999999318],[-0.0470000000000006,-0.09399999999999409],[0.0470000000000006,-0.09300000000000352],[0.07000000000000028,-0.04600000000000648],[0,0]]}}},{"ty":"sh","ks":{"a":0,"k":{"c":true,"v":[[57.002,85.267],[57.247,85.303],[60.889,87.404],[61.064,87.61399999999999],[61.029,87.859],[60.819,88.03399999999999],[60.539,87.999],[56.897,85.898],[56.757,85.688],[56.791999999999994,85.408]],"i":[[-0.09300000000000352,0],[-0.09399999999999409,-0.07099999999999795],[0,0],[-0.046999999999997044,-0.09399999999999409],[0.046999999999997044,-0.09300000000000352],[0.07000000000000028,-0.022999999999996135],[0.09300000000000352,0.046999999999997044],[0,0],[0.02400000000000091,0.06999999999999318],[-0.06999999999999318,0.09300000000000352]],"o":[[0.07000000000000028,-0.04600000000000648],[0,0],[0.07000000000000028,0.04600000000000648],[0.02300000000000324,0.06999999999999318],[-0.07000000000000028,0.09399999999999409],[-0.09300000000000352,0.022999999999996135],[0,0],[-0.07000000000000028,-0.06999999999999318],[-0.046999999999997044,-0.09399999999999409],[0.04600000000000648,-0.0940000000000083]]}}},{"ty":"sh","ks":{"a":0,"k":{"c":true,"v":[[49.613,81.695],[49.473,81.485],[49.507999999999996,81.205],[49.717999999999996,81.065],[49.962999999999994,81.101],[53.605,83.202],[53.779999999999994,83.41199999999999],[53.745,83.657],[53.535,83.832],[53.254999999999995,83.797]],"i":[[0,0],[0.02400000000000091,0.06999999999999318],[-0.06999999999999318,0.09300000000000352],[-0.0940000000000012,0],[-0.09299999999999642,-0.07099999999999795],[0,0],[-0.046999999999997044,-0.09399999999999409],[0.046999999999997044,-0.09300000000000352],[0.07000000000000028,-0.022999999999996135],[0.09300000000000352,0.046999999999997044]],"o":[[-0.07000000000000028,-0.06999999999999318],[-0.046999999999997044,-0.09399999999999409],[0.046999999999997044,-0.09300000000000352],[0.07000000000000028,-0.04600000000000648],[0,0],[0.07000000000000028,0.04600000000000648],[0.02300000000000324,0.06999999999999318],[-0.07000000000000028,0.09399999999999409],[-0.09300000000000352,0.022999999999996135],[0,0]]}}},{"ty":"sh","ks":{"a":0,"k":{"c":true,"v":[[38.968,75.427],[38.688,75.39200000000001],[35.046,73.29100000000001],[34.906,73.08100000000002],[34.940999999999995,72.80100000000002],[35.150999999999996,72.66100000000002],[35.395999999999994,72.69700000000002],[39.038,74.79800000000002],[39.212999999999994,75.00800000000001],[39.178,75.25300000000001]],"i":[[0.06999999999999318,-0.023000000000010346],[0.09300000000000352,0.046999999999997044],[0,0],[0.02300000000000324,0.06999999999999318],[-0.06999999999999318,0.09300000000000352],[-0.09300000000000352,0],[-0.09299999999999642,-0.07099999999999795],[0,0],[-0.045999999999999375,-0.09399999999999409],[0.046999999999997044,-0.09300000000000352]],"o":[[-0.09300000000000352,0.022999999999996135],[0,0],[-0.07000000000000028,-0.06999999999999318],[-0.045999999999999375,-0.09399999999999409],[0.045999999999999375,-0.09300000000000352],[0.07000000000000028,-0.04600000000000648],[0,0],[0.07000000000000028,0.04600000000000648],[0.02400000000000091,0.06999999999999318],[-0.07000000000000028,0.09299999999998931]]}}},{"ty":"sh","ks":{"a":0,"k":{"c":true,"v":[[42.434,76.863],[42.678999999999995,76.899],[46.321,79],[46.495999999999995,79.21],[46.461,79.455],[46.251,79.63],[45.971,79.595],[42.32899999999999,77.494],[42.18899999999999,77.284],[42.22399999999999,77.004]],"i":[[-0.09299999999999642,0],[-0.09299999999999642,-0.07099999999999795],[0,0],[-0.046999999999997044,-0.09399999999999409],[0.046999999999997044,-0.09300000000000352],[0.07000000000000028,-0.022999999999996135],[0.09300000000000352,0.046999999999997044],[0,0],[0.02300000000000324,0.06999999999999318],[-0.06999999999999318,0.09300000000000352]],"o":[[0.07000000000000028,-0.04600000000000648],[0,0],[0.07000000000000028,0.04600000000000648],[0.02300000000000324,0.06999999999999318],[-0.07000000000000028,0.09399999999999409],[-0.09300000000000352,0.022999999999996135],[0,0],[-0.07000000000000028,-0.06999999999999318],[-0.045999999999999375,-0.09399999999999409],[0.047000000000011255,-0.0940000000000083]]}}},{"ty":"sh","ks":{"a":0,"k":{"c":true,"v":[[94.33,150.665],[94.435,150.45499999999998],[94.575,150.45499999999998],[97.516,152.171],[97.691,152.346],[97.761,152.661],[97.691,152.801],[97.516,152.83599999999998],[94.575,151.11999999999998],[94.435,150.90999999999997]],"i":[[0,0.0700000000000216],[-0.07000000000000739,0.046999999999997044],[-0.046999999999997044,-0.022999999999996135],[0,0],[-0.04599999999999227,-0.09400000000002251],[0,-0.09399999999999409],[0.046999999999997044,-0.022999999999996135],[0.06999999999999318,0.022999999999996135],[0,0],[0.046999999999997044,0.11700000000001864]],"o":[[0,-0.09399999999999409],[0.046999999999997044,-0.022999999999996135],[0,0],[0.06999999999999318,0.022999999999996135],[0.046999999999997044,0.11600000000001387],[0,0.06999999999999318],[-0.04600000000000648,0.04599999999999227],[0,0],[-0.046999999999997044,-0.022999999999996135],[-0.07000000000000739,-0.09299999999996089]]}}},{"ty":"sh","ks":{"a":0,"k":{"c":true,"v":[[101.824,150.855],[101.964,151.101],[102.03399999999999,151.346],[100.59899999999999,154.113],[100.42299999999999,154.008],[100.28299999999999,153.798],[100.213,153.517],[100.353,153.377],[101.544,150.997],[101.649,150.822]],"i":[[-0.06999999999999318,-0.04599999999999227],[-0.046999999999997044,-0.09400000000002251],[0.023000000000010346,-0.09399999999999409],[0.8170000000000073,-0.30400000000000205],[0.07000000000000739,0.0689999999999884],[0.022999999999996135,0.09300000000001774],[0,0.06999999999999318],[-0.07000000000000739,0.023999999999972488],[-0.11700000000000443,1.353999999999985],[-0.046999999999997044,0.04600000000002069]],"o":[[0.04600000000000648,0.06999999999999318],[0.06999999999999318,0.06999999999999318],[-0.14000000000000057,1.5409999999999968],[-0.046999999999997044,0],[-0.06999999999999318,-0.046999999999997044],[-0.046999999999997044,-0.11699999999999022],[0.022999999999996135,-0.06999999999999318],[0.6779999999999973,-0.2330000000000041],[0.02400000000000091,-0.07099999999999795],[0.046999999999997044,-0.025000000000005684]]}}},{"ty":"sh","ks":{"a":0,"k":{"c":true,"v":[[101.579,143.222],[101.64899999999999,143.047],[101.82399999999998,143.047],[101.96399999999998,143.257],[102.06899999999999,143.50300000000001],[102.06899999999999,147.425],[101.96399999999998,147.63500000000002],[101.82399999999998,147.63500000000002],[101.64899999999999,147.425],[101.579,147.145]],"i":[[0,0],[-0.046999999999997044,0.047000000000025466],[-0.06999999999999318,-0.022999999999996135],[-0.046999999999997044,-0.09300000000001774],[0,-0.0700000000000216],[0,0],[0.07000000000000739,-0.046999999999997044],[0.046999999999997044,0.046999999999997044],[0.04599999999999227,0.11700000000001864],[0,0.09299999999998931]],"o":[[0,-0.06999999999999318],[0.04600000000000648,-0.022999999999996135],[0.04600000000000648,0.046999999999997044],[0.06999999999999318,0.09399999999999409],[0,0],[0,0.09299999999998931],[-0.04600000000000648,0.046999999999997044],[-0.06999999999999318,-0.022999999999996135],[-0.046999999999997044,-0.09399999999999409],[0,0]]}}},{"ty":"sh","ks":{"a":0,"k":{"c":true,"v":[[101.964,135.412],[102.069,135.692],[102.069,139.58],[101.964,139.79000000000002],[101.824,139.79000000000002],[101.649,139.58],[101.57900000000001,139.299],[101.57900000000001,135.412],[101.649,135.202],[101.824,135.202]],